-0.00168217623808,-0.0506464101225,0.00924942835163,-0.0322998268821,0.0503899977534,-0.0327020858811,0.00238323223917,0.0144166816761,0.0347619179607,0.0264563498149,-0.0599189114918,0.111806174539,0.0103136107334,-0.00382490395914,0.145830528544,-0.0924773453813,-0.170786322697,-0.0441350773461,0.0277042812098,0.0699788799069,0.0623737444035,-0.115048436242,0.0734274913075,-0.10161338244,0.00946356449644,0.0282254094253,-0.0229298267429,-0.083640239626,0.00618339391738,0.0199438396283,-0.020309212443,-0.0768583168043,-0.0460512096239,-0.0202628619481,-0.0176164304033,-0.0226387723914,0.0561403799146,0.0298484334564,0.0509608823219,0.16560498831,0.000746271989174,-0.0594997574858,-0.00358747245177,-0.00100060103717,0.00766012634838,0.0602067224636,-0.055782119282,-0.044389146133,-0.0914675325671,-0.0143225373877,-0.0551696312474,0.0253331359592,0.0014193527312,0.106295059298,0.0339141702983,0.0581598143075,0.0270901139925,0.0397326024968,0.0241159308694,0.0424539876589,0.00944688462176,-0.0889388616537,0.0907968768545,-0.0537330542474,-0.00734538254698,-0.0848766570987,-0.0311959147395,-0.0774962250924,-0.026694845234,-0.0529565025059,-0.0293839845151,-0.075019080859,-0.0607430540866,-0.00257937459796,-0.0100021598212,-0.0205797725017,-0.0346285521433,-0.0145775502197,-0.0206682427455,-0.00802933389034,-0.0141507050095,-0.0198567979328,0.0070589608919,-0.00376791926402,-0.0358666827366,-0.0661036720058,0.0965165913414,-0.00509868657046,-0.00159053425229,0.0821018102922,0.126888843275,-0.00806740573151,0.105867653874,-0.107602241961,0.0742130809691,-0.0850494818155,-0.0705542937706,-0.102949252168,0.0404124664634,-0.175955846826,0.015749111767,0.0262599785321,-0.0481741148688,0.0932378182435,0.0680597496574,-0.041245116662,-0.013645798894,-0.0541445838082,0.056174741379,-0.0764521033922,-0.0949028541509,0.0276971175663,-0.0395139725565,-0.0269817899176,0.0343877222483,0.0446882030952,-0.0469068638157,0.00803895405803,-0.078194955901,0.0143113486722,-0.00949524695756,-0.0809777743685,0.057443409424,0.112613508956,-0.0656075555978,-0.0963312848298,-0.175719997146,-0.103959971469,0.0333972584095,-0.0700287453746,0.0394383673689,-0.0102502268811,-0.0363461190302,-0.136858567308,-0.0688903226507,0.0369240643028,0.0367358522265,0.0711541032751,-0.0368222263436,0.0333565989157,0.100413680272,-0.056575395119,-0.0669075762667,-0.0181452078971,-0.00766835166197,-0.00249605579955,0.0594936417428,0.0352792290412,0.0918915500381,-0.0896122701157,0.0797261443242,0.0840895439778,-0.11323893232,-0.263001045184,-0.17215082172,-0.0187871095147,0.211863340639,-0.0388476389971,0.0991800593084,0.0424581283333,0.00739564486469,0.0375470342103,-0.0102181283456,-0.000570610735425,-0.0184640356599,0.00156338544296,-0.0726320715994,0.0176871845974,-0.0183970708339,0.0115855050973,-0.0227475603747,0.042246842949,-0.0577672474475,-0.0535655828489,-0.048354385475,-0.00645331950254,0.101814828012,0.146671167506,0.164803209694,0.0761261525728,-0.231466123913,-0.286428732068,-0.21398472639,-0.11882210473,0.0547627415051,-0.0306483415994,0.152643152111,0.0475856578806,0.0088827322428,0.0692527069201,0.0264382942723,0.000373923534651,-0.0453326444144,0.0266239602077,0.00937432907616,-0.087888477252,0.0215389976718,-0.0138684575168,-0.145998553568,0.0134904166747,0.0733758510416,0.0765247914766,-0.0287449644019,0.0230882773298,0.114529060641,0.187257824132,0.17956998593,-0.0477912601908,-0.155585752707,-0.307712815773,-0.110622340325,-0.193884359213,-0.0805465221186,-0.0584161106877,0.0231460070224,0.072818423204,-0.199076995283,-0.0357369806502,0.0888497390068,0.0281716518394,0.017164793636,-0.0515434926208,-0.0273570063759,0.0388054274547,0.034329139427,0.0050856956608,-0.0215644368665,0.0366837379604,-0.0302631691556,-0.005000243613,-0.0276722642649,-0.0604292147663,0.0515986654195,0.215586096739,0.247191249421,0.136871946781,-0.17500645927,-0.19569257027,-0.316445309407,-0.144002942125,0.119340353898,-0.0838882480881,0.0545935415965,-0.0985800687201,0.0120980619256,-0.162714971826,0.00395035359386,-0.0370929108905,0.023383680232,0.00615872740437,-0.0313035044003,0.140889763941,-0.00801635527404,-0.0195780644106,0.0223570966181,-0.0785805898368,0.0401829700082,-0.052350414239,-0.104496227605,-0.0929178168978,0.034577586183,0.204759026429,0.35483593197,0.0702854153193,-0.2528512189,-0.208781165307,-0.249545246153,0.0779975641408,-0.0446901912838,-0.0255627410171,0.0380306604179,0.163376260203,0.151759859299,0.0873652247154,0.0588383935869,-0.00759278252898,0.043793424616,-0.0819874051677,-0.0108797513679,-0.0544793526953,-0.0270690965663,0.00892806200749,-0.00821646528992,0.0175513648446,0.0911416133394,-0.110855650455,-0.0509631838006,-0.0542669760002,-0.0833868178538,-0.015672697643,0.204700248682,0.0100919396547,-0.180203346283,-0.247692563299,-0.129107001187,-0.148621028989,-0.0766473224146,0.0220675313868,-0.17119227168,-0.0574517427771,0.0266817557638,0.0426668698451,0.0872174989508,-0.0468104001844,0.0079555753039,0.0102659323571,0.0701809397152,0.0939897329221,-0.155326504054,0.0311163511627,0.0136436711675,0.0535835446623,-0.0880931787329,-0.190963992412,0.00235886672716,-0.114593208201,-0.0251369940057,0.0979705657733,0.166322582288,-0.0487581817387,-0.351297667851,-0.125651527185,-0.107800648771,-0.142628933379,-0.0754120002852,-0.0871298889567,-0.138681136162,0.00462333398934,0.0647351192725,0.106716322999,0.0757855767224,-0.01282759986,-0.0300360175738,0.0232357167871,0.028949522263,-0.0771740371857,0.0082850820424,-0.0461893907555,0.0062900065082,0.0178321566459,-0.0197368021439,0.00734877645427,-0.0039029053829,-0.0789980412082,-0.0693487212046,-0.0504071203479,0.259074600207,-0.0137042132457,-0.0871614826648,0.0181191768363,0.0504819756927,0.0244642695861,-0.0503760264475,-0.0222207846486,-0.121442296602,-0.108292207896,0.00299171702698,0.0955906293403,-0.0621150432353,-0.0692319777512,-0.150462270127,-0.0946071394386,-0.017566162892,-0.0316918359605,0.0109156591731,-0.0349631130533,-0.0873984470788,-0.0822020977625,-0.0302047360442,-0.0628014739165,-0.0678678244041,-0.117461809509,0.0513812341811,0.0224766959007,0.209041399059,-0.182304477231,-0.240459613557,-0.00459888312434,-0.0679970994285,0.165923898922,-0.0933112394142,-0.0897128634009,-0.0758277217092,0.0354347016709,0.224880243262,0.240127945485,0.135141208638,0.0459318482889,0.0548598687564,-0.0446926564652,-0.0038341342638,-0.139567211959,-0.00318473680071,0.165037085152,0.0918622795099,-0.0106928338154,0.0200137092992,-0.0160117756427,-0.0865487946783,-0.092850629569,0.0406462626803,0.0395548248084,0.021103948118,-0.0390023766263,-0.0974727158786,-0.100779254601,-0.221498941659,0.0176510844869,-0.222372999132,-0.0665735024561,-0.0701254051497,-0.000790559401852,0.0825163533636,0.200294406935,0.0941642046296,-0.00389418143745,-0.00319104678868,-0.131138152055,-0.129742920569,-0.141311060961,-0.0623930034789,0.0574046118344,-0.0160525293908,-0.0931076590797,-0.0812451313076,-0.041454237021,-0.0604610334587,-0.186972502848,-0.112343543077,0.0337821070053,0.186976572299,0.0074101865985,-0.176915464372,-0.26610654857,-0.0554986722042,0.07315697647,-0.201456872831,0.133021774728,-0.0865793217779,-0.127253550344,-0.129738789921,-0.0325217120669,-0.156356261435,-0.0290791918087,0.0127804323949,0.0941337514694,0.0442377033565,-0.0888767749324,-0.0362172011267,-0.075531148568,0.018612317127,-0.141408661877,-0.0813647913413,-0.0515890724052,-0.0491537770073,-0.0361653468651,-0.026204826022,-0.0164853216796,0.291691413771,0.0611964593474,-0.205402635467,-0.180102683835,-0.0113023161829,-0.071321401021,-0.0624418014903,0.0103065203828,-0.108201220642,-0.348512201516,-0.015642514777,0.0145696951262,0.0358308125628,0.210470804925,0.0928078156362,0.0953131035215,0.0273983340851,-0.0186410250728,0.00871654252132,0.0295545104873,0.0194505384391,-0.175255056552,-0.178776524592,-0.0990461112421,-0.0825792848512,-0.274887801612,-0.0500300909255,-0.00379420122612,0.232795800123,0.0421262802765,-0.146701204607,-0.25072229037,-0.0271110491146,0.0378322302626,-0.0146938919885,0.0738239336384,-0.015994354033,-0.188463665342,0.00536611470157,0.0517993344033,-0.0771269530493,-0.0700463816153,-0.0245555270237,-0.222668963806,-0.108454323882,-0.0645727506575,-0.0372835727066,-0.0403475390402,-0.0716822184957,-0.0894309520351,-0.103305004625,-0.0145340140696,-0.0446887847902,-0.0690245424212,-0.0252975403633,0.0263716520114,0.180156001271,0.0672384608177,-0.13460086119,-0.229759145634,-0.0738153060717,0.0897150035424,-0.125614692243,-0.0803452370117,0.0227382037484,-0.0433726372241,-0.0519918997153,-0.00881238484496,-0.0189840467017,-0.00725498764912,-0.0462226263659,-0.016425334551,0.0132303300543,-0.0143241028555,0.0091786397212,-0.0251425672657,-0.0118898763044,-0.0607232653156,-0.103007847882,-0.0607152843208,-0.132593615075,-0.0592686710038,-0.000763514121496,-0.0450125893503,0.0661423028983,-0.0267062502205,0.116168826329,-0.0121079411003,-0.146247160765,-0.0688410690269,0.0446994080953,0.0498017870603,0.113877230761,0.0330827455218,-0.0630852671829,-0.0755285666573,-0.0408784056762,0.0117893815653,0.077262945541,0.0980327186968,-0.0475679436224,-0.0873339102857,-0.019421751587,0.0728681824347,-0.121685217757,-0.0658050479758,0.0646484679938,-0.147085972253,-0.140171594321,-0.00992951970078,0.106090803651,-0.185358733764,0.0206642889561,-0.0356434815795,0.00409560778078,-0.153271886274,-0.0868219306773,-0.113197056094,-0.0264686765834,0.0322484088038,0.0709900761258,0.0644869611044,0.0708091738656,-0.069530719168,-0.063860361602,-0.00325367198443,0.0295654032737,-0.106310262203,-0.0789530314211,-0.0182302652584,-0.0906417432011,0.0440594531994,-0.0584045423132,0.109015656997,-0.131927376275,-0.153791592666,-0.106748968998,-0.102605503189,-0.204724841871,0.00988631280151,0.130173864826,0.104288975861,-0.142104412268,-0.1244994413,-0.158623631458,-0.0485017473028,-0.0110520800025,0.0855567504783,0.132153480989,0.0587769010914,-0.176244344341,0.0351650178313,0.0314844069171,0.0832802593702,0.0370410921814,-0.00684940094227,-0.00208046828888,-0.0982731885524,-0.0378098099413,0.0901111069082,-0.0332735116953,-0.0504034288389,-0.0504752081073,0.0232972960973,-0.0684051215056,-0.0874953479997,-0.239203021585,-0.0634114703689,0.174768981397,0.220438735007,-0.00900996979744,-0.146426715144,-0.0296994409031,0.106573237333,-0.0675645912574,0.00695889241418,0.0568682430354,0.162135332425,0.0344185322033,-0.028348811837,-0.0512662288158,-0.0165478280438,0.0411142124509,-0.101261506541,0.0072252312382,-0.00675827594642,-0.0698390646035,0.14053270776,0.0380939742936,-0.0601496186846,-0.0125102335889,0.0481217820105,0.0919221995432,0.0312214996032,-0.0925452759183,0.00745046586662,0.0477186817911,0.020497921707,-0.0481102441542,0.149381169862,0.0183145858888,-0.028952579338,-0.102945350491,-0.0825846597812,0.0436200606358,0.142797638088,-0.117601090264,-0.0823972967613,0.0429011543552,0.0118521954462,0.0742188740223,-0.0753225245323,-0.0750326472192,-0.0430667346543,-0.0108221518876,0.0200110575459,0.0133433345802,-0.0131378766464,0.119239547995,0.039164509653,0.0184477199718,0.0363789407798,0.0988202191703,-0.00620253948209,-0.035268588912,-0.106410684475,-0.172221897013,0.019796399223,0.139872272933,0.0143139042509,-0.0318025393865,-0.0570012310918,0.00447046946141,-0.0697659014934,-0.0900200976247,-0.0138499393652,0.00488787771642,0.00421722086096,0.0172989523392,0.127649835263,-0.0425155828382,-0.012063785055,-0.0959639501998,-0.0856397786575,0.0853710706806,-0.0310096189904,-0.114408341677,0.0122408435392,0.143344887442,0.0285874273558,0.0683802072602,-0.0275051281097,-0.035408431714,0.0217530343455,-0.0696101936129,-0.0596283025897,0.0808362764546,-0.0823948757434,0.0619019554372,0.129272553347,0.0347117176576,-0.0553842699664,-0.177444174858,-0.106780703379,0.0142169519155,0.150664421983,0.185251970191,-0.0226087793947,0.0534011892668,0.0707994548025,0.0357529890029,-0.0259682248881,0.0213725801136,-0.109935795362,-0.0460811188756,-0.00806160901173,0.106385334159,0.0591173456408,-0.0193925723869,0.00079071943413,0.0755108353167,-0.111907663559,0.00679345936911,0.0289998411838,-0.0363035123376,0.0192282434873,0.0653251574102,0.15697359135,-0.0104055577851,0.140865622778,-0.0142556603917,0.132802021205,-0.0154626446113,-0.0854554442984,-0.0238280077171,-0.0112943827009,-0.0777995756857,0.0112147490659,-0.0393905858264,0.0166711440483,0.0345598346414,-0.0848972167986,-0.0301753981295,-0.0698271960935,-0.0340362721558,-0.0195703060808,0.18914625151,-0.0599315972402,-0.0356352183266,0.0440030288054,0.0182715265052,-0.0107506918526,0.0920581335573,0.0803414336948,0.0969420249521,0.0479287590301,-0.0499119773767,0.0874068794414,-0.0121904765462,0.0008306694068,0.0979947316899,-0.0175494742606,0.073223800413,-0.206360623282,0.0498385490345,0.0117500571495,
0.00808593439237,0.0544486552355,0.0518190296551,-0.0120491492422,0.00125405179398,-0.091517396414,-0.0913743259786,0.00286746422936,0.0514561059781,0.0412321331326,0.0675055675908,-0.0602514540515,0.0804019551696,0.0277801243003,-0.0233243866947,0.00368941747401,-0.00737522560402,0.0378961219926,-0.0176246804763,-0.0573656317286,-0.0452747196033,-0.0905088778449,-0.0362771726197,-0.025067712916,-0.0233242130898,0.0169660044067,0.00399426036457,0.0881388087993,0.0629130165592,-0.0159185200549,-0.0366238010385,-0.0741320824228,-0.0328029567788,0.0574824593687,-0.0922764971246,0.0456462781121,0.0831479160572,0.142116025383,0.00700114132623,0.00610801619869,-0.0219617111217,-0.051688516914,-0.06187383346,-0.0931029481533,-0.136131041168,-0.0461049140166,-0.0689053401445,0.0254566558354,-0.0961450165787,-0.145815027535,-0.0140866530973,-0.026663879802,-0.0473693508277,-0.0923839593056,0.0163741340698,-0.0425575806438,0.0990706237966,-0.0120498317213,-0.0158534672414,0.0709136509067,-0.0938217888398,-0.0963482804588,-0.0586662666916,-0.00409146718179,0.12034504385,0.0640621296481,-0.0509695218884,-0.119127616416,-0.184768941599,-0.125713105557,-0.231272468468,-0.309540912566,-0.304110599666,-0.00962849957693,-0.00867129454834,-0.109912240656,-0.144342982321,-0.0234029912494,-0.0506800736216,-0.00498110210647,-0.0359012408165,0.034435278671,0.0714227313647,0.0285749412757,-0.0234148955637,0.0156889132458,0.00483218615116,-0.0065476388894,-0.0206692159686,-0.0125609600816,-0.106900902882,0.202487763081,0.178774807981,0.129666017542,-0.177420045078,-0.0428608189044,-0.180499119416,-0.188008920263,-0.317840777391,-0.507562174941,-0.312180589786,0.0174606036335,-0.0976299100996,-0.0657825276624,-0.0411193793095,-0.0182883224652,0.00798485066699,-0.0509636271526,-0.0312249890397,0.00711548910522,-0.0473607213926,0.0444508864272,-0.044786926061,0.014629740232,0.0161314992808,0.041309989171,-0.0453397244145,0.00744959922078,-0.100588463378,0.20235462786,0.291791524382,0.103660478387,-0.0485675469513,-0.235441004916,-0.299254264236,-0.373902979546,-0.427311501656,-0.306503633589,-0.30082479823,0.196373745974,-0.0125966861505,0.00338247587588,-0.21047026868,-0.0336126283643,-0.0313080293169,0.0431789707312,0.109111023898,-0.00908142396389,0.0184633857007,-0.174822609778,-0.0376167776205,0.0710537625214,0.00507325745374,0.0224757797626,-0.0127060749094,-0.108298955939,-0.072211042978,-0.026422029535,0.476334978716,0.163803755615,-0.093897195238,-0.14637646137,-0.305453165735,-0.250397722014,0.099556695114,-0.118388175726,-0.281669718697,-0.1812667021,-0.199779344801,-0.144003731138,-0.339241111816,-0.0958058380218,0.182970508211,0.00204770966543,-0.0109330668048,-0.0594751878735,0.0310463608615,-0.0658943788846,0.0202039669266,-0.0483422344927,-0.0194065804507,-0.0918320744306,-0.10497250322,-0.221442215503,-0.0215257173622,0.0963730077564,0.278200228074,0.0392244557695,-0.195899412444,0.136941641343,-0.00404642410836,0.19066640644,0.453249402942,0.039235124029,-0.207023729399,-0.436401101171,-0.129646177822,-0.12806492622,-0.13317146251,-0.125667918672,0.000641755440022,0.00284672827932,0.0107860918546,-0.133346063424,0.012255916573,-0.192226612042,0.0289844274195,-0.0472972387406,-0.076757365448,-0.0758794058678,-0.0896265669858,-0.0446583588195,0.132512325377,0.0960951008011,0.399310684812,0.0631166417625,0.0742347421167,0.202934417653,0.00340267452634,0.262817150202,0.126634845573,0.0859747507503,-0.152533947422,-0.294425512499,-0.0172585102321,-0.232372812953,-0.175361236565,-0.115691189138,-0.0318693269746,-0.0238991878289,-0.00570450229686,-0.044775997214,-0.183685643203,-0.0866872275479,-0.0186806376546,0.0367544413203,-0.0217483342823,-0.0186616979354,0.0286157427207,-0.00141595212565,0.0101002371536,-0.00311470802814,0.31689067145,0.287306389329,0.319419817921,0.320945186861,0.203208988259,0.309328582059,-0.110296570505,-0.118814996918,-0.0443490571879,-0.514811072922,-0.0110438021271,-0.147023323139,-0.0118867503839,0.0928356653275,0.195930869458,-0.114521208393,0.0251423997407,0.0424316281171,-0.0298668760863,0.0164419776548,0.0532904089822,-0.00230380164559,-0.00366751398783,-0.0463739277361,-0.0261898621335,0.0379332144356,-0.0356420029222,0.14908795915,0.252369369756,0.732272556631,0.443655333472,0.188541098951,0.259819925352,0.0911484756866,-0.341359624253,-0.335879120728,-0.127480993894,-0.115173228464,0.0781339421079,0.0104146509344,-0.0707106330923,0.151380261605,0.118732582075,0.155736104185,0.0591981851314,0.120120746223,0.0280372802694,0.0737832512109,-0.0142374995476,-0.0674073802817,-0.12263047124,-0.0255672993259,0.00772119432685,-0.0622173243363,-0.177963411677,0.0932004780883,0.319642859428,0.133290829715,-0.17250890943,-0.248935344023,-0.322379334606,-0.476983763077,-0.263093895668,-0.236367811143,-0.0509713283873,0.0486765329157,0.0158636646666,0.251016400686,0.245387774745,0.360048363381,0.181987040156,0.145588232769,0.0643293566916,-0.044923538554,0.0851322656021,-0.0219414455417,0.0198563353588,0.0148569160162,-0.00211001275876,0.0114315744149,0.0870919489673,-0.100331551414,-0.130806483036,0.0875522693003,0.112704087158,0.15207687692,-0.133247979458,-0.530240893741,-0.270922599638,-0.257401004479,-0.137441272943,-0.0682859376949,-0.041263857251,-0.240928074918,-0.131644741546,-0.0600893777062,0.136199522513,0.264297371115,0.28957436944,0.202168392267,0.186995297261,0.0805016494973,0.200152036012,0.0455977109314,-0.0531751543211,0.0489687516942,0.0290665064938,0.00498797228045,0.0472530754103,0.00885420720852,-0.108108768795,0.149959714166,0.14136741247,0.0224783143773,-0.192682902221,-0.608139557886,-0.280431058053,-0.318429545384,-0.118721041444,-0.256924054726,-0.204183993864,-0.19069534937,-0.312031280834,-0.49878086574,0.0461901132465,0.324204913338,0.317542792662,0.24557298367,0.113897435896,0.181506574143,0.0929314050507,0.0409477118842,-0.0143213381048,-0.152519704409,0.023601317976,0.0298608258779,0.0282636632785,-0.236703434608,-0.10495564404,-0.163325537376,0.0837803572264,-0.0569451946814,-0.188241383609,-0.678147886001,-0.320265423667,-0.379231885864,-0.2776743321,-0.0963438324477,-0.241082728649,-0.0864362539796,-0.443963690493,-0.622792598394,-0.112324960309,0.306406422711,0.346744164793,0.0673716305466,0.227342980049,0.0462746331262,0.0558891009734,0.0808671555382,-0.0345539026243,0.0277229503813,-0.0613012142321,0.147823521722,0.0132644379607,-0.20639791558,0.124718467061,0.091846821411,0.0187562913622,0.264605566509,-0.317083286868,-0.238141329374,-0.257521934021,-0.324827958791,-0.119994630091,-0.196969421259,-0.168677034251,-0.222241241207,-0.332465507855,-0.356715107163,-0.123292683385,0.0399053702864,0.23480775538,0.318245001531,0.180227347976,0.129776934189,0.0424858653273,0.0971204854319,0.0380770691001,0.00645594583781,-0.00607756033165,-0.0317234376138,0.0751585744896,-0.292928832653,0.0989456336535,0.195444882144,0.237230117798,0.563298201388,-0.556762451708,-0.592456442658,0.0211507703623,0.0226272170591,0.201137831492,-0.0723885741457,-0.16975894792,-0.254285240457,-0.0856225913087,-0.275193919171,0.00653597028234,-0.0255905977814,0.186774457442,0.143102647272,-0.0837507928424,0.0239885920148,0.0705492186786,0.058547472886,0.0127792002697,0.00951652111017,-0.0213817432971,0.0999043305783,0.10169832827,-0.241256318199,0.185970387046,0.275454350507,0.474341226449,0.694404046454,-0.116337432183,0.113977006704,0.205473834279,0.427800235848,0.249622525029,0.0523234406316,-0.120046509691,-0.297929874669,-0.27208736489,-0.0106981849665,-0.218908541569,-0.304392039747,-0.0601346700962,-0.00560915502235,0.0259115796061,-0.0399495320483,-0.0529014687317,-0.00711790131696,0.0352192519712,-6.37327554671e-05,0.0962516344335,0.270499661809,0.0879423213366,-0.129445682659,0.173370400751,0.179145889419,0.308072137222,0.40916966125,-0.0967028372604,-0.0531933407073,0.220281990595,0.050349313857,0.023827256787,0.106515243379,-0.097628017076,0.111552664925,0.010586684967,0.255257246663,0.167077632522,-0.20076060608,-0.318534962342,-0.259620124029,-0.180747662393,-0.0959163430175,-0.0371486502368,0.05799261565,0.00862999485247,-0.0105356459307,0.0423986110275,0.00272847344094,0.0226369673746,-0.22699908609,0.0780223327765,0.0313094246882,0.309588336705,0.134235984356,-0.405263998725,-0.639814973993,-0.476895384953,-0.279732069523,-0.170138022202,0.148180826977,0.0683730956994,-0.0109731877353,-0.0334277249152,0.190079163764,0.363176061316,-0.114632166028,-0.275137836024,-0.103911747324,-0.243044028714,-0.14268604044,-0.0583457818103,-0.114575355168,0.148329421645,-0.0773281703814,0.104929772489,0.0128665837756,-0.166071558424,-0.245724226806,-0.0391272579216,-0.20111065796,-0.0334172362782,0.153396651672,-0.441482889294,-0.560332398434,-0.175400390824,-0.390421681206,-0.296062023064,-0.064967161613,0.00353753993979,-0.0618452709267,-0.120929572985,0.0880488793655,0.103055667663,-0.221653924586,-0.26239899378,-0.217192463538,-0.162357103128,0.0425633509892,-0.222103751391,-0.29376236665,0.0184956751375,-0.0147685069328,-0.0318028865223,0.00537889228908,0.0654690146715,-0.0537639957751,-0.0794556482266,-0.0364062179297,0.104097371562,0.19630375271,-0.0447230063255,-0.0906126829606,-0.160137745471,-0.226876949891,-0.0336427685264,0.210716068836,0.0164908074104,0.193310636173,0.0970039016984,-0.045917813108,-0.280232924914,-0.457302380058,-0.143756951341,-0.167439471575,-0.203404900711,-0.190246355655,-0.0680369440253,-0.159067491732,0.0718483904655,0.129466264623,0.0250741864145,-0.0205325164649,-0.0892473073979,0.0423394990162,0.19718609543,-0.0921308061031,0.0747559439736,0.211423776325,0.550503434457,0.515434306582,0.364201270808,0.237121565983,-0.012957550449,0.0178542630177,0.0831265531595,0.37691067551,0.361107528949,0.13883575124,0.0694163903364,-0.0756126836823,-0.124825739188,-0.209121719953,-0.149605209912,0.00577009684467,-0.0958270028887,-0.00661898712448,0.128511689822,0.0186591769024,-0.0299020942465,-0.0442315714637,0.0599770430479,0.105179426284,0.154421382343,0.081291824054,0.28436534581,0.266770665925,0.294487144776,0.421379472141,0.548954637815,0.258552624276,0.165597780236,0.308673162184,0.265896940373,0.287780504712,0.389914106587,0.212736027385,-0.0623936174127,-0.0208720752017,-0.147653076664,0.0955228874693,0.0107680743323,-0.0744574719695,-0.0491362333972,-0.0357068536029,0.0150190891093,-0.0075763764066,0.130242643099,0.0426552570918,-0.0165864281269,0.112218547266,0.234831577553,0.0736176999765,0.128194256007,0.260324878432,0.24787081228,0.423188618818,0.313012924613,0.336043482429,0.431095190694,0.374887994134,0.323242912931,0.190298115456,0.236717983406,0.15002765419,-0.147774664306,0.0479658609585,-0.0143008376079,0.042630455365,0.00426393094797,0.0194034463344,-0.00849940503036,0.0045510655891,-0.049346892264,0.12610159619,-0.0683200024006,-0.0512394740681,0.00178689998489,0.0125676504623,0.166957788352,-0.0302608094551,-0.100085038684,0.272249748761,0.0481810991204,0.00299322472458,0.146545703057,0.259304924518,0.135006930318,0.0134659308635,0.281572231035,0.134692545725,0.108235722317,0.142946513082,-0.0597716579698,-0.221315830577,-0.122699933419,0.0211536925343,0.0361895022205,0.0330957291232,-0.0478845703836,-0.0691004039741,0.0490702117361,0.0862845238359,0.0350926133143,-0.0597067940904,-0.117248281137,0.113464254872,-0.060219816249,-0.108698535143,-0.167776411835,-0.256768867715,-0.131515927974,-0.152998957889,0.000488378970236,0.0612635320395,0.0782260380501,0.00990878796693,0.0562775857068,0.0319480751011,0.0282919068635,0.0336254147783,-0.0107269582039,-0.0312707390311,-0.124790280587,-0.0499380624387,-0.0871593610639,-0.0436781365144,-0.0354586247544,0.0953277140276,-0.0798592202232,-0.0570898967308,-0.0997837679186,-0.0761690128158,-0.118409620953,-0.0810554062367,-0.146396345717,-0.170643074129,-0.135179620573,-0.15348653484,-0.155467623347,-0.0710159568069,-0.0743700362857,-0.100118721304,-0.0101349599816,-0.044357841382,-0.0803912575968,0.156135199418,0.0495774557501,0.0246458504746,-0.0467473413994,-0.0333020312574,-0.14306375259,-0.204467332416,-0.115730642161,-0.0354348992983,0.0802574202218,0.0157197766293,0.00193674540412,-0.0278382577678,0.0318657784394,0.0143208314835,0.025904763666,-0.0500330208402,0.00154304478303,-0.0753428968758,-0.189859042873,-0.0733627512739,-0.037979079275,0.0449430472167,-0.0999901586343,-0.151213390974,-0.0866224293805,-0.151808641368,-0.0469137608175,0.129331034168,-0.102126648101,-0.0208677648705,0.0660934245333,-0.140679349804,-0.094318309906,-0.091908328772,-0.0693395487835,-0.0327056790327,0.0750496116712,-0.0252583382963,
-0.0265731717444,0.00804054501006,-0.0448048012918,-0.0054653782355,-0.0333083979398,-0.0238131606361,-0.0875264296514,0.0567850178058,0.0446656378913,0.114924080157,-0.0521509729574,0.0351193222091,-0.0265544998838,0.0213513163331,-0.152693153347,-0.0453345332059,0.015201200894,-0.09550874278,0.103573398384,0.0433687496727,0.0397880319436,-0.0685063555551,0.0561457684619,-0.0378463161191,0.0347446306356,0.00486690346799,0.0685364756825,0.0569483590873,-0.0469884841539,0.063101357195,0.0631262163072,-0.0174330471613,0.0585623070999,-0.0791926825497,0.053938422699,-0.015642384818,0.0407273278965,-0.0848244784806,0.0566528552906,-0.05045239267,-0.0487183698554,-0.0781932895401,-0.0648108868619,0.012902115369,-0.00617874140665,-0.0187471440953,0.0898680427085,-0.0195131649975,-0.0924899406561,-0.0588792075707,0.0027228359481,0.0206205475432,0.0102710823708,-0.117237585885,0.0256164914288,0.0489885047063,-0.00188160577054,0.022292865091,-0.0574438731383,0.0316762038985,0.0378992815346,-0.00754748371829,-0.0337496063122,-0.0362587300617,-0.0523862825288,-0.0460991274692,-0.0403399338065,0.0137103882228,-0.0734011261942,0.0308843155009,0.0163346707568,-0.0636828782947,-0.0395915749295,-0.0779291440645,0.113828845494,0.0411603510633,-0.100349314393,-0.00114056091643,0.168731266024,0.0109235682243,0.0226401087055,-0.00906325657805,0.0499024983196,0.0424697356182,-0.0747787727023,-0.0295903425201,0.0384180593323,-0.0206746785024,-0.068758816346,0.016419447236,0.0247032858568,-0.124180039419,0.0145876503316,0.0392518008662,0.00158201135942,-0.0361239099752,-0.0495996533873,-0.0252720525039,-0.229443076742,-0.149443258059,-0.0613841685526,-0.0993864534674,0.0178357991471,0.112749635625,0.0249475530218,-0.012751229218,-0.00818925848224,-0.0318718410618,-0.00114096567655,0.0393900644888,0.0654238250808,-0.0213784110071,0.0471092197606,-0.0165886722485,0.0254807067214,-0.0457686047928,-0.0655464108965,-0.0214158847126,0.0584910495038,-0.0630897699385,-0.00299658011496,-0.0421814808614,-0.031784849557,-0.131242263954,0.000193957367713,-0.0662315232282,-0.07062835266,0.0153671604368,-0.172385895229,-0.0281239884067,-0.0552875823511,0.0121731053395,-0.00202448902103,0.101527069768,-0.0127528872138,0.0290843719226,0.0146742113664,0.0402505997428,-0.0431099893547,0.167324281128,-0.0822677273851,0.0969579492893,-0.0238665797961,-0.0254944275594,0.0380471047264,0.0442744416552,0.036095097012,0.0431766646689,-0.0498102724514,-0.0525567115916,-0.0932556602326,-0.152147832024,-0.218381517374,-0.166135176322,-0.0691879691966,-0.120883319318,-0.117592545478,-0.10354418269,0.0548950818995,-0.00781999226223,-0.0877868262777,-0.0301612348614,-0.00993001774538,0.168468181831,-0.0552929435264,0.0377958865426,0.0373317436006,-0.00467288244912,0.00157771097883,-0.0433497636549,0.127394827452,0.0469102440872,-0.0263063458495,-0.0619269386637,-0.161025918156,-0.0690110093036,-0.0453241647549,-0.0814255988407,-0.209651783303,-0.118706528052,-0.174109579273,-0.147430054873,0.0341878807934,-0.219430302794,-0.162714244118,-0.0877022792776,-0.176212887023,-0.00458444437622,-0.0184126405982,-0.0746576181565,-0.0754263187347,0.0816071970717,0.101735844782,-0.00809175010763,-0.0863808183016,-0.000973053284258,-0.0167148936585,-0.0124859918691,-0.0512012720351,-0.00413411781703,0.00574489829801,-0.103753463107,-0.0715157333145,-0.102395732663,-0.172794320237,-0.209166747256,-0.153198528948,0.0176146851156,-0.205524813423,-0.0290452083449,-0.289064817768,-0.197135411339,-0.136607702927,-0.104589004638,-0.159578312213,-0.0671339159502,0.046786225137,-0.15207325461,-0.0766617068208,-0.0401931356473,-0.0326878569403,-0.00462956922653,0.0143411904888,-0.0598271816464,-0.0193442619175,0.0615521979269,0.0657010252502,0.0261213137053,0.0177332784293,0.0172597922113,-0.194646686243,-0.109626567903,-0.259248125731,-0.170764660167,-0.0655192124119,0.0731427294741,-0.112520936836,-0.146931597029,-0.128977496779,-0.119925107404,0.0367966253017,-0.0125775987995,-0.0464793763931,-0.11501884907,-0.119143829348,0.0576634602925,0.0460025828532,0.0891316381532,0.0552631150197,0.136383622798,-0.0977162052672,0.0285364069968,-0.180551024884,0.0211117710829,0.0572631679343,0.0880988506985,-0.0405259887922,0.000235659366931,-0.212083849066,-0.105222812353,-0.0809624375896,0.0576052016977,-0.0422717521885,-0.212015367517,-0.2295966121,-0.301934490703,-0.20036641133,-0.282692074726,-0.330492794312,-0.0353303600311,-0.130290908378,-0.030353177738,-0.107463768226,-0.0659541942377,0.0296885580047,0.0164522708591,0.0746366848186,0.0134840024236,0.0890912481977,0.0972659326374,0.00613568011542,-0.0397564513847,-0.0264849723822,-0.0477326001836,-0.0226102764816,-0.0119432413178,-0.175725186028,-0.212058179071,-0.0643252785009,-0.0949955795882,-0.270739192899,-0.293266937664,-0.219840966218,-0.267765151952,-0.153210177401,-0.448631908529,-0.126804306759,-0.142421422886,-0.0353277263705,-0.0432251873306,0.100762316125,0.146505014825,0.083088431879,0.0641678314002,-0.0917193293652,0.0772521811823,0.0806645677403,0.031998188277,-0.0644889709996,-0.108081503964,0.00565060110177,0.0246092069262,0.0204123741304,-0.00352353701997,-0.0323099176034,-0.22605486563,-0.0609195217058,-0.106418420432,-0.0832041488675,-0.0123344198113,-0.0586870312255,0.097347377504,0.045549838332,-0.123747247846,-0.0956677184772,-0.260642593122,-0.0201599149521,-0.00779561879574,-0.0197311273463,0.0484395907976,0.0323345058349,0.0146568101429,0.015226554796,0.0311346830898,0.0564172766601,-0.00250613952882,0.127294577979,0.0424293400818,0.0274891553601,0.0479326289511,-0.00762131832696,0.0210449538468,-0.0563784236051,-6.47500654576e-05,-0.0108893407871,-0.146763374157,-0.120624439896,-0.0100750835755,0.0108418314275,-0.031648494864,-0.0305628347401,-0.173928926627,-0.262517223076,-0.339422389678,-0.238608758769,-0.139767306634,0.00952107850624,0.0120716199014,0.224727829061,0.0723264735509,0.13828067903,0.20314446037,0.00907987659085,0.0721644009652,-0.0602835695501,0.0102707877268,-0.0632419781358,0.154648456863,-0.0355209930387,0.00632423648404,-0.00966050604437,-0.00284986965605,-0.165436629054,-0.135917310046,-0.0681538228241,0.00445101490228,0.0656235555627,0.0374971044934,-0.0206560649011,0.0494835502223,-0.257011529594,-0.0707466448676,-0.335983190762,-0.183332855915,-0.134012772456,-0.0174400738606,-0.116298362053,0.142541977732,0.0704361250519,0.0247365479325,0.131578562618,0.165852904501,0.051490000691,-0.00323351258981,0.024145575904,0.0670834557829,-0.0636447670255,-0.0290114228766,-0.132778631312,-0.16305102091,-0.327323145165,-0.315045967176,0.0541446593033,0.0948754031317,0.189987225213,0.119371063503,-0.0377259352185,-0.0493543815398,0.00455227806993,0.0220636875891,-0.0471033713356,0.0624576311145,-0.0620211610362,0.03728445411,0.0709965020711,0.215794477575,0.109191790201,-0.00742475891624,0.0803303523525,0.104949532596,-0.00726023634476,-0.0327070675917,-0.0401286738423,-0.0461584984126,-0.0890950326275,-0.0792765253965,-0.16192177488,-0.157108253967,-0.134324533074,-0.0614004827784,-0.0684270221814,-0.0389593923823,0.0937445625678,0.121320358175,0.037154447311,0.153063162679,0.0265358708261,-0.121954991084,0.198342408099,0.157849493866,0.21538673834,0.167549344575,0.10472063687,0.114113289963,-0.118806244904,0.0734350243018,-0.0586266493278,-0.0274195012006,0.0768521049597,0.0692718339343,-0.0455818644223,0.00262218256178,0.038444563521,0.0259200752075,-0.170949852499,-0.156147035211,-0.11856914676,-0.0830969828452,-0.0990415082049,0.0401638333807,0.177611994318,-0.00598274972306,-0.0277985229114,0.201363945729,0.149662086877,-0.158332769866,0.110297596379,0.168525251775,-0.0372901577254,0.0677411226245,-0.0480894696009,-0.0135857640109,-0.156955212438,-0.000305536308302,-0.0473937101389,0.123312995446,-0.00215321489947,-0.00074351656483,0.000357945605002,-0.0310965879099,-0.0204025997161,-0.09843839622,-0.0961091416268,-0.0569251040412,-0.233743699012,-0.168583985781,-0.0860614892517,-0.141703676478,-0.050630052528,-0.133128053179,-0.231450187662,0.120945531814,-0.075442440951,-0.189541396039,0.325170801587,0.317194356742,-0.101829429392,-0.00800732637848,-0.0880185183833,-0.108136725455,-0.32041163825,-0.0633313729007,-0.0307721395362,-0.173518166464,0.116587185211,0.0601370810794,0.161460091765,0.0209339396249,-0.0450475340625,-0.0624995635935,-0.0887210321489,-0.0708855118509,-0.071655551553,-0.127844675675,-0.136532621377,-0.0994453205246,-0.160662957893,-0.0614060145001,-0.0406484715441,-0.074777215926,-0.0998658153407,0.0255148365041,0.102656183984,0.101439289113,0.0525715733657,-0.111531040257,-0.158262500595,-0.192635318795,-0.0765074146302,-0.0379514522993,-0.0136935513311,-0.0250109132607,0.100992142301,-0.0301085650626,0.0150141049939,0.00207551183478,0.106886899222,-0.0681636510116,-0.0726298200825,-0.171112334445,0.0335091582552,0.00376053608512,-0.148634276653,-0.0715362181404,-0.089620240774,-0.0562448240438,-0.0515880472363,-0.0234319201147,0.0179301558904,-0.0509043039613,-0.0881138244047,-0.175162085363,-0.136307539938,-0.138095598583,-0.0799460558564,0.0503849079909,-0.188700242927,0.00589295195915,-0.0656553526354,-0.0685435675267,0.0078533962992,-0.119375765417,0.0290832867954,0.0774020191261,0.0808327938619,0.015373674999,0.0359527315052,-0.0684062882781,0.0590670668233,0.0317433588459,-0.15611012333,0.12170597269,-0.062792128455,0.0304916340459,-0.0873662768594,-0.0684701324499,-0.109419244619,0.00611313351134,-0.0958399293503,-0.163111347019,-0.136287703278,-0.113223038376,-0.146254851179,-0.0855095389909,-0.0737546657167,-0.156000631335,-0.123897599472,0.034448115791,-0.0255808623696,0.0204664228301,0.0127054945267,0.0107447741531,-0.0563078110665,-0.0328109510286,0.0201848934484,-0.0853541147962,0.00583472873199,-0.0577709844418,-0.129033351645,0.0593896013796,0.183974059007,0.237922744682,0.0133008716973,-0.0229640565545,-0.0538996763897,0.0629842281882,-0.00645281709279,-0.288835629086,-0.0995430174721,-0.0642076865755,-0.0688827281745,-0.120311769944,0.00544321148239,-0.0532773897863,-0.0690906230504,0.0829028800113,-0.062715906093,-0.0113488089972,-0.159787161416,-0.0595076364472,0.0217375108255,-0.117193036635,-0.181190292814,-0.0295600959129,-0.0227699584509,-0.174970260876,-0.0848994061632,0.00731587796094,-0.0514437712058,-0.110328659888,-0.220765356613,-0.170164029117,-0.0786613640587,0.0609625204543,-0.00715556117784,-0.211877913508,0.0801506158161,0.0204355193454,0.0111841686299,-0.0154905984435,0.0844542226422,0.0553829129946,-0.0614733329069,-0.0603101535955,-0.0121735254091,-0.0862775986674,-0.0192059605131,0.0606326592291,-0.0200722443396,-0.0607724239808,-0.118326224879,-0.0433291734962,0.111923839266,0.0389094157595,-0.059249060204,-0.0673518005112,-0.0289748466692,-0.105456407936,-0.0622163427529,-0.12452423294,-0.0705249333912,-0.142782896251,-0.0927224688468,-0.080478210813,0.0780293943463,0.17126167308,-0.00347809528899,-0.0901251598529,0.0904716952202,-0.0248605795947,0.0318510143983,-0.0918530133609,0.0326112377562,-0.00186816396291,-0.036141202466,-0.0229922869675,-0.0280143972552,0.0719412121681,-0.00350596741646,0.0495248731951,0.0167542282522,-0.0324242923888,-0.0855368794875,0.0855360751546,0.180795535107,0.00781544235927,-0.0115981156666,-0.0400486572498,-0.115510844153,-0.134775331995,-0.0628995726825,-0.132813260256,-0.00363804077528,-0.0273585166955,-0.119452508202,-0.0753463552277,-0.143777089766,-0.0191871599961,0.0194199658569,0.0466022128549,-0.0441488024194,-0.0283806471131,0.0283524860232,0.00986532878558,0.143323112461,0.180883108647,0.174331513421,0.0568852579194,-0.107185350005,-0.111447391953,0.0108299380716,-0.00680256307352,0.141136641446,0.0321384443373,0.0165239660653,-0.0844353594763,-0.104146099501,-0.0387031713241,-0.00546438934595,-0.107045700143,-0.0473540890714,-0.138361727179,-0.114791499994,-0.0901633201718,-0.0564353253856,0.058686275118,0.00880112566814,0.0181725424349,-0.116053775448,0.0457048629646,-0.0310777844821,-0.0273270606591,0.028159665522,0.0699757676926,0.00979053210218,0.0259547205006,-0.0894544738241,0.0413737795659,-0.00889535484575,0.0510178667918,-0.0645362347426,-0.0541766862932,0.00647954971252,-0.107055140982,-0.0995889893483,0.0232100796241,0.0182259684218,-0.00605997131064,-0.0929045372197,0.0469553949132,-0.0469300078608,-0.0232676454036,0.0622061776304,-0.114142312803,-0.0862092090493,0.00498154683207,0.0357998592539,0.039533881303,0.0207789958454,0.0395768340099,-0.0214638100665,-0.0156050922868,-0.0133791209344,0.00799402761088,-0.0584951861108,0.037014481066,0.0400440718729,-0.0484276380841,-0.0932038120975,-0.043384246045,-0.0678955955056,-0.027428577572,0.00062506054504,0.0953303189321,0.0581518925895,-0.0105778642314,-0.0123345455656,-0.00743254876929,-0.0174614963195,-0.023250486223,-0.0544000526704,-0.0192875818357,-0.0479301069347,0.0876806149252,
-0.0496544213542,-0.0667951596801,0.0980128874171,-0.0457819318045,-0.0102281793105,-0.0748205238138,0.010571973977,0.00710235148867,-0.0762727656477,-0.042594871229,-0.0274614075683,0.035908476914,0.0909291060965,0.0407754760686,-0.0131083680878,-0.117000849219,-0.0602101122749,-0.0111950526829,0.0451344374364,0.0418957373334,0.0585929182227,0.0350216470087,0.00603651940915,-0.0265432210208,0.0317143465335,0.0266671204943,0.0815694563674,0.0611170339789,0.0843425794419,0.0136002982082,0.0305323692691,0.0271197073156,-0.0293526298614,0.0174318492343,-0.00302365663016,-0.0779337659686,-0.0120722714256,0.00545121795439,-0.0242574242221,7.25050534615e-05,-0.00392792243073,0.100524489634,0.00734202671797,0.0409423142037,-0.0262850940721,-0.097093110406,0.0117097225782,0.019556598995,0.0167421941741,0.0460964552702,-0.0496782437209,0.0807841284602,-0.0622155406716,0.0686488328124,-0.003595716987,-0.0254476756643,-0.0406600032972,0.0931696899834,-0.00441641160754,0.0433050200791,0.00766550842891,0.036663540456,-0.11651158423,0.0204682103587,-0.0792342053944,-0.0286206676852,-0.000235583090203,0.0483107277893,0.0326046629769,-0.083131307807,-0.0191280711943,0.0807450521559,0.0104219213462,-0.0115320935148,-0.103730081692,-0.034799586332,0.0171194711538,0.0379453135394,-0.0361388850009,0.0255800217366,-0.0152705948877,-0.0194251422075,0.0318383300524,0.0290716765945,-0.00778900041251,0.013259775805,0.0275294894107,0.0242031573863,0.0821088447978,0.0485322983841,-0.0729631177661,-0.0402249875133,0.00487160341843,-0.130014927771,-0.0210808628139,-0.0694524006919,-0.17726367366,-0.101971992041,-0.0712065918167,-0.0999137568752,0.0334628460231,-0.0692509892428,-0.138048922911,-0.172426007266,-0.0361012876557,0.057334867594,0.0328942823447,-0.0477627488983,-0.037935441126,-0.0883592397691,-0.0751673178893,0.0208687079421,-0.155369616155,-0.0914700892747,0.0446538774529,-0.0837003059087,0.0774222151442,-0.114111533774,-0.00522702135576,0.00643570613908,-0.0438765577843,-0.0895069964719,-0.079663542624,-0.0658962735359,0.0167855599543,0.0379742729246,-0.0644437040981,-0.0813218319432,0.00193506623856,-0.0820848486128,-0.0719151438043,-0.131746960152,0.0164868101496,0.0727317677779,-0.0795715887847,0.0104944350651,-0.109663068332,-0.0603916234524,0.024929841267,-0.0858229596679,0.137410397951,-0.0470363128579,0.0137470713592,0.0629532444704,-0.0822692533084,-0.102446741838,-0.0194154658044,-0.0160975297263,0.00871498112744,-0.0889473520524,-0.11204342303,-0.140943756981,-0.000896516878836,-0.0827698208926,-0.097246871438,-0.10657276852,0.101412889505,0.0829593747572,0.0458670991176,-0.0376354016459,-0.049785738734,0.0418510479435,0.017559105461,-0.0652594627792,-0.0256488876517,-0.0646075009827,-0.00150719287078,0.124803094326,-0.026291197346,0.0451825968423,-0.080793320824,-0.00937726150318,-0.0530714764279,0.0553472741882,-0.0258142325699,-0.0420202051181,-0.0036304363573,-0.0368825149653,-0.063228065616,-0.068080603874,0.027145303051,-0.0332428812157,-0.164357853438,-0.159041029599,0.0870016547055,-0.0832510692667,-0.0225090857093,0.0366584712624,0.00876094103316,0.0122236079092,0.0852866326593,0.122882767975,-0.0426299359546,0.0831226959056,0.0492890927628,-0.0248441407921,-0.065543388042,-0.0397474895518,0.0622529957719,0.0482532085436,-0.136716571397,0.0800349262851,-0.0176561056284,0.0869879078615,-0.101243851378,-0.0259476086371,-0.0767166845394,-0.0891709284898,-0.0233391705788,0.0579634900964,-0.102054746498,-0.0429866418469,-0.0938286344756,-0.0562731427276,-0.0597501069044,-0.0185634317013,-0.0126073574799,-0.0115037948351,0.0963365795092,0.070184287464,-0.119288050455,-0.0386971332766,-0.0332260030083,0.0477261709145,0.022686613034,0.0446872899791,-0.0716035618177,0.0273957544024,-0.00596772024988,-0.0366601568678,-0.0119265368409,0.061504938758,-0.0150302796673,0.00472272496139,-0.157036441145,0.0215431700492,0.0083126213541,-0.121819601948,-0.0660735106027,-0.0573650293272,-0.0343509139719,-0.168552994723,-0.0301979454066,-0.03586955866,0.0504590061201,-0.0507897339897,0.0387132505893,-0.032462050927,-0.0195597500874,-0.0293187428348,0.0396438058498,-0.0651171153254,-0.127603713712,-0.0676466240138,-0.0392792923462,0.0138816714441,-0.0635396258277,-0.0490309763302,0.0264769286013,-0.0193454856364,0.0150945548167,-0.116940707718,-0.223686480295,-0.211710181953,-0.0713980886511,-0.0714410070974,-0.124617913815,-0.263375724757,-0.191323239803,-0.202179669573,-0.192366221431,0.0125316427668,0.0959208198908,-0.0319512584469,-0.0898956993103,0.052422441338,0.019286132773,0.0392417896598,0.0221156251138,-0.000726863970983,0.0530612412659,-0.0461944614954,-0.0887283255493,0.0126100499204,0.0812253558781,0.0755696267685,-0.105414577119,-0.113498520958,-0.0494940948165,-0.0611537209277,-0.140731618846,-0.185719357091,-0.090139654709,-0.242998505022,-0.138553097622,-0.196004005533,-0.218921625576,-0.248042454261,-0.0291685339372,-0.0633269786172,-0.0329803045608,-0.0509510970337,0.0363005047784,0.0412238641975,0.0271301438526,-0.00451683708397,0.00690493137568,-0.0350693337822,0.0222525354717,-0.028674182696,-0.0214914517886,-0.00482443768773,0.0388937676178,0.0500151356829,-0.0388228414313,-0.0388975454227,0.0622613160083,-0.0583079631996,-0.111692456505,-0.0518960643046,-0.186585969363,-0.0984805609336,-0.20862011816,-0.0762857004262,-0.00959179023507,-0.105495030497,0.00680977961643,0.0504916601284,0.0437532994673,0.0587204574133,-0.130025271487,0.0260049596186,-0.00988505613356,0.022442687729,-0.0551865305651,-0.114928656411,-0.0104813560574,0.00347991802006,0.0228749161633,-0.107174367001,-0.0332694947359,0.0474107289155,0.0429832752107,0.0201670362707,0.0471163767854,-0.0896723012831,-0.103696642092,-0.114328049428,-0.146221043501,0.0148838601989,-0.199547183627,-0.11338012347,-0.0428085015324,-0.154906525673,-0.0835515783504,0.0586051886948,0.0977217423835,0.0487891968565,-0.0156492364369,0.0155010172135,0.0310617717902,-0.00377155302908,0.0126266157368,0.0346342517442,0.0827634362922,0.00643062831112,0.016265597223,0.059765951578,-0.0710649795443,0.110707074097,-0.0199021015804,-0.0791572798169,-0.161526487381,-0.0425306020519,-0.0927378448255,-0.161350179783,-0.156817104093,0.00581194594317,-0.124349828976,-0.1653011312,-0.147807813866,-0.208243953799,-0.105682781945,0.128573176659,-0.0197498158854,-0.103250884656,-0.00391383318255,0.090271856262,-0.0758493675858,-0.00763127340221,-0.0198930752729,0.00270564304067,-0.000803949661285,0.0330899377657,-0.105025401588,0.071593666937,-0.126278436632,-0.0262878357123,-0.0116241188085,0.080054392032,-0.129792046539,-0.0481665308023,-0.00654135077828,-0.314783791502,-0.194597728242,-0.0329182094886,-0.0259831279804,-0.00669621476198,-0.0158076241834,-0.0031908060787,-0.0473973187741,0.02438432683,-0.00963798802114,0.00522104636072,-0.0641235908393,-0.00920105005954,-0.0117087369443,-0.00288880370354,0.0690811629143,-0.035707656271,-0.134337637228,0.0662563747344,-0.0111600273104,0.0379917537163,0.048891707926,-0.0299268029598,-0.095099036633,0.0225514947829,-0.176000837121,-0.151185079316,-0.0361693945279,-0.207280748744,0.000590918644204,-0.211450377465,-0.0322032597111,0.0683286087311,-0.0687820857929,-0.227983479141,0.00868650636275,-0.138177610697,-0.0472098181097,-0.0122693812769,-0.0125362456633,0.0445049449352,-0.0338763968359,-0.0548314566552,-0.0307116476813,0.0211376880862,0.0280133625355,0.019442564374,-0.0650894745146,-0.137463460477,0.0257075205558,-0.117319585055,-0.00973971791206,0.0712102891883,-0.229910445429,-0.132630449506,-0.144567164956,-0.246679258954,-0.180841253477,-0.20834721681,-0.155634168305,0.0426817865868,-0.0372105702583,-0.0528947044032,-0.12597127451,-0.175530428671,-0.0667703009772,0.0371686847717,0.0478587467841,-0.120749736315,-0.0217336792473,-0.0859557368976,0.0245136020798,-0.0029361724026,0.0259990750029,0.108218724469,-0.0815032334117,-0.14338300162,-0.00368817692509,-0.00414873453308,-0.167099475222,0.0166351538771,-0.149898839227,-0.113868788904,-0.124502300078,-0.0963008844181,-0.0930079425995,-0.104201049407,-0.073532897747,-0.122904199337,-0.192816501881,-0.0465126864512,-0.107432769994,-0.107034701859,-0.0500008306101,0.0344318790185,0.0115247508565,0.0139257362005,0.0414580955019,0.0416727253597,-0.0322009967065,-0.0123960643555,-0.0629535147459,-0.0147217258563,0.0266538047722,-0.0457110023423,-0.0303636712923,-0.0345426295653,-0.185697667509,-0.0313026778914,-0.0431445688006,-0.0867064598914,-0.0886366139281,-0.251265862267,-0.202501483795,-0.0686901974945,-0.0345796929943,-0.14238899887,-0.109728249426,-0.0663745097273,0.0237008508554,-0.132458217564,0.0127376343326,0.0605193496457,-0.0249781621657,0.055207900968,-0.138367365567,0.0204138820779,0.0122265522726,-0.100794325402,0.0175315399016,-0.00624845954865,-0.153708859743,-0.101460502427,-0.0728329224611,-0.0628131070507,-0.00832654586477,0.0725804355749,-0.0379050217546,-0.0976998980842,-0.0290622159447,-0.0983063874785,-0.280340433137,-0.091027377057,-0.126203619946,-0.173296083729,-0.221029347966,-0.182921156479,0.0506864337481,-0.0593927964534,0.0152925411033,0.0594718586065,0.086132944006,0.0102631066057,-0.017695798936,0.0894711356379,0.0957320233351,-0.0259483476699,-0.0310143408002,-0.0407466424197,-0.115575354486,-0.088431215189,0.00212207676948,-0.0850068954464,-0.13055462744,0.0549963293379,-0.0327683869695,-0.158824048597,-0.151929062779,-0.215603100112,-0.248233035677,-0.162703614232,-0.151237870732,-0.231466845695,-0.076024157039,-0.126819132478,-0.0577813697805,0.0258705857298,0.00987845701639,0.042178961467,-0.0923845933498,0.0444128464405,-0.00193231984568,0.0525532195437,0.000653567592752,-0.0213748309585,-0.0137912012527,0.0501318158432,-0.00569690291203,-0.0972659081444,-0.069653015154,-0.0662122950002,-0.13331915693,-0.0891690302846,-0.118941687852,-0.0813388507874,-0.147786600917,-0.128244478319,0.00882913510624,-0.0393896942664,-0.16988709744,-0.174021449836,-0.0814022468489,-0.0982155743301,-0.129098951346,-0.127374793152,0.0212737555077,-0.0355922106251,-0.0193573876137,0.0284110605177,0.0485125902324,0.0354816083072,-0.0535841122585,0.0331160593385,-0.00380800106702,-0.0521308334313,0.00173694983688,0.0758413921065,-0.00661294064466,-0.0112758090922,-0.0969979899324,-0.0264485647805,-0.0632165937877,-0.0111867375595,-0.0176667578786,0.0123564520538,-0.104609942233,-0.0948895382105,-0.0393496301042,-0.233374316849,-0.211140566394,-0.0903348235181,-0.0750556405623,-0.0998321047941,-0.0129473487934,0.100876645537,-0.0288357004309,-0.000712830664843,0.0525621373348,-0.0618200216465,-0.0814902588279,-0.0382727632438,-0.0356362198953,-0.107533117755,0.122937269784,0.0450626314759,-0.0268776295071,0.00442335988926,-0.0118747947284,0.0210459955885,0.0125513937097,-0.0889353446101,0.00243679989867,-0.0198585891927,-0.066185301467,-0.120834503377,-0.221302901579,-0.0717712387937,-0.125540244503,0.0557891669075,-0.0725029110278,0.0201504711202,-0.138282735958,-0.0503288655608,-0.0371305719367,-0.0293007112408,-0.0687762487137,0.0608132607811,0.0504893254215,-0.0308299032863,0.0455479488801,-0.110615368453,-0.065328984338,-0.116306624906,-0.0940134877313,0.0113348133515,-0.0050947352384,-0.0379071067942,0.0173634382085,0.0743114512668,-0.0321402223463,-0.0588300618065,0.031967929173,-0.188251601824,-0.0919160753606,0.0238246000659,-0.0451570903343,-0.102631131493,-0.0039827733898,-0.0440803936173,-0.0234430832818,-0.0341952015023,-0.0192988284856,0.0780271269028,-0.00475102275676,-0.0161626159812,0.0951435328875,0.0143699768145,0.0133505541363,-0.0417452542645,0.000487941168064,-0.0678700057753,0.0409289730933,-0.0464383123838,0.0565718896247,-0.0694318153923,0.0568935553393,-0.0817941806722,-0.143952143243,-0.0132095476022,-0.12531915049,-0.153240184622,0.0783525147612,-0.0419266922589,-0.11034460386,-0.0462839531477,-0.0931925356755,-0.112391131894,0.00301840791066,0.0526486659398,0.0204502428038,-0.120361004544,-0.020498722507,-0.0786901250409,0.00465664209272,-0.0784729053822,0.0948597468822,0.0114493375429,0.076947992486,0.0106476097625,-0.0928760658863,-0.0391703727195,0.0426562279167,-0.0474300999465,0.0972805579238,0.0675759115636,-0.0568202505939,-0.0822409333508,-0.1176490578,0.0968956788069,0.0925340876553,0.0218572232754,0.0709360499156,0.0288175752233,-0.0202986228574,-0.0438790738641,-0.036874548165,-0.0574964721407,-0.00763688656997,-0.00290830842205,0.0124251592932,0.0295043688934,0.0146634146954,0.0363656828184,-0.0419372431888,0.035773253505,0.00702562857417,-0.0176434329566,-0.0209373983698,0.0343680658439,0.0322925226072,0.0569159925716,-0.053786642924,0.117571143277,-0.130891003159,-0.0423563737084,0.0721233115516,-0.0540119846377,-0.127195932542,-0.0771009640391,0.0374494081542,0.0533593498287,0.053465251891,0.00330852942614,0.00139407378342,0.0444876881911,0.0515309417337,0.0427836763276,0.0248025199555,0.115933938931,-0.0177260037941,0.045187585092,
0.0441596967797,-0.0611928962169,0.0134126930976,-0.047785675866,-0.0331046820272,-0.0231059302401,0.0905353862257,-0.0866870815476,0.023238362411,-0.0630482955432,0.0330546448089,-0.0506484143793,-0.110031514688,-0.0459570512611,0.0496687056907,0.00829935958585,-0.0550985168651,-0.0541960446632,0.0479621134216,0.0835632096013,-0.0179273257415,-0.0517944534618,-0.100480204343,0.0303027664441,-0.165049580698,0.0295664745637,-0.0147103797303,0.0485361844706,0.0668293695519,0.109942632873,-0.0908888169835,0.113811556487,-0.123930547696,0.00809047328375,-0.0267851893748,-0.052266487724,-0.0560287449912,-0.0097166477671,-0.02191605226,-0.00795374265747,0.0405092251377,-0.0909427591574,0.0376324568318,-0.0414543368166,-0.0236306046497,-0.0421974906374,0.0305060333455,-0.0909113895865,0.00635904166157,0.10692786157,0.000994615271143,0.216220043345,0.0181098500596,0.0370080170864,0.042921396638,-0.107364224997,-0.0309440359201,-0.0106098931299,-0.0254433929429,-0.124925050743,0.0799692644694,-0.00753738569459,-0.0979086423212,-0.00362278829878,0.0660048685931,-0.109237692792,-0.0947087062222,0.0305210583265,-0.0589306521245,-0.0115011635303,-0.00174812298582,0.0314515217652,-0.113101503991,-0.0147563674667,-0.176767526057,0.0520274288018,0.076766704052,-0.0086294416947,0.0959181900807,0.0138903490142,0.0149594787233,-0.0840466151249,-0.0440946262267,-0.0363716387533,-0.00534853486453,0.16477664022,0.0699388906215,-0.0341905120715,0.0321497363286,0.000174221238713,0.0278484905177,-0.0131808171491,-0.027930405057,0.0224223938686,-0.0177273305639,-0.0750537154697,-0.0102421473732,0.0590076096791,-0.0284212366992,-0.0465307798801,-0.0132952969997,-0.161722214361,-0.162186877959,-0.117832701651,0.0298147078892,-0.107570094557,0.0533985940834,0.0629171706869,-0.0841697073162,0.0145295855817,0.0849543015059,0.00736498482512,-0.0851490377542,-0.0171000460607,0.0228839677348,-0.0739778114985,-0.096249965764,0.0433204346717,0.0027530842807,0.0252013290892,-0.0535485689863,-0.0407878216288,-0.142714460507,-0.101638572771,-0.177457164781,-0.0127509726537,-0.159477706076,-0.16861816629,0.0415284460318,-0.0702053604619,-0.112741846786,-0.175178120167,0.0831852300351,0.0335925690975,-0.0335794635611,-0.0187791511904,0.0771191498992,0.0786551088817,0.00631176299359,0.0585583974334,-0.00449120281045,-0.0297797987689,-0.0318274397745,0.0469595388544,0.0550910257351,0.0771860276405,0.0347980757739,-0.121707583548,-0.0310893178985,-0.0389050168549,0.026399745535,0.128323662907,-0.0593626370608,-0.201224704416,-0.192812909935,-0.196510736914,0.035048180152,0.0883858785626,0.0209868894294,0.0946549989488,0.0290381189833,0.0355435845419,0.00468658497177,-0.0560696355102,0.0541536965613,0.0674805039684,0.111501865453,0.0752636969225,0.0246251944164,0.0418232533983,0.0616773730995,0.00694380036142,-0.0243358907034,0.0357160206742,0.0934988233737,-0.0958802898272,-0.00504190960358,-0.067081467496,-0.124447465645,-0.0838755611184,-0.0787425020915,-0.105139994305,-0.220396367683,-0.0409623584561,-0.041034407636,0.118680227903,0.100099612063,0.0548774786504,0.0681109003798,-0.0603014139054,-0.030691541293,-0.0507144390339,0.120446849902,0.0327635369738,0.0914551684039,-0.0596692381624,0.0450667206597,-0.0273769919972,0.00352796104788,0.0075154251827,0.150102237636,-0.0322540416455,0.0622582789415,-0.0775111258336,-0.0232640719249,-0.0613677483002,-0.0880198583538,-0.12195953183,-0.188166046168,-0.0947468116755,-0.0241470682922,0.0319722751873,0.114835511096,0.0930037872547,0.0437123289435,-0.0272655637568,0.10019818995,0.0721215441871,0.0498888649264,0.00791829701601,-0.0474547908389,0.075857060947,-0.0340465630495,0.0035148433172,0.0101436324474,-0.0348458580856,-0.0542549334568,-0.00848965978926,0.0589989058193,-0.0289563386479,0.124807805977,0.148417818453,-0.0675041847328,-0.0763828239147,-0.0983638756495,0.0105937096307,-0.0364070770315,-0.066330334048,-0.148469041691,0.049962455075,0.0577323828323,-0.00828630569355,0.00950324984764,0.0422970842319,-0.0366705519391,-0.0681147666905,-0.0569056884963,-0.0726598971026,0.0292405143492,0.075865999295,-0.0457634022117,-0.0253976943126,0.0234164086253,-0.0205547611289,-0.0482209853722,-0.011164251231,-0.201272242679,-0.0253015439602,0.0132963202341,-0.0388129495088,-0.143569210629,-0.00554795275552,-0.123812007118,-0.14408425617,-0.0692842740795,-0.197248702828,-0.064667170274,-0.164358240632,0.0418451739965,-0.0861114971646,-0.0706245969557,0.0761972437125,-0.0448440862407,-0.073293971598,-0.0186086214525,0.0553005391525,0.0759557307488,0.0685188266492,-0.0420448048712,0.0115157620947,0.00477010432509,0.0109929899685,0.0968964760576,-0.012913981739,0.0122756356501,-0.019752978109,-0.1031261232,-0.0471403836919,-0.0580781899853,-0.0821166026765,-0.0732616101939,-0.0585550239931,-0.113132959301,-0.261056461353,-0.211774052975,-0.208427139488,-0.107086881675,-0.171310401403,-0.0146729305503,-0.0211406750978,-0.00771759208341,0.120802283996,0.0968163986684,-0.0367587283677,0.0414286639679,-0.0638998690628,0.0332104060441,0.0523377771139,0.0429314630475,0.00932842947414,0.0283802253227,-0.0217873681989,0.0728927140282,-0.0303566487459,-0.0138804824961,0.0519621981926,0.0245880779254,-0.109990995928,-0.129082676142,-0.218465239151,-0.251483296642,-0.232218812006,-0.207758983586,-0.227353883385,-0.100106419503,0.0138886647203,-0.0164430484656,0.0385675199105,0.0937753886524,0.0663914201681,0.102911991655,-0.114175429339,-0.00294148105329,0.0677407522743,-0.0273127726638,0.0056345348511,-0.00333383146765,0.00950286786794,0.0825376561516,-0.0127053193951,0.000199018362921,0.0784179649686,-0.00816990076187,-0.00148509574284,-0.0345448743268,-0.0891122852109,-0.224806651686,-0.342794372861,-0.33192144044,-0.135269371052,-0.1817482379,-0.183809209469,-0.0567943899193,-0.160824389844,-0.0447293609841,0.0391022140531,0.168646916894,0.104034964456,0.136968893823,-0.0442262596385,0.0304805497871,-0.101940943112,-0.0784592056676,-0.0755571886172,0.0264388313606,0.0107092623742,0.00619170077426,-0.00241648817553,0.0441290855573,0.120685545564,0.00224006418806,0.0662976472257,0.0637847098939,-0.184487706642,-0.0719164145928,-0.161790049668,-0.249823016858,0.125823963972,-0.00884284748447,0.0059140642689,-0.0570083744514,-0.130418227758,0.0295512431014,-0.00702867074903,0.213586521468,0.239228187274,0.240311536025,0.173020577144,0.124991809894,0.016245514539,-0.0281630445505,0.0538724093626,-0.0307216773714,-0.0292981361506,-0.0386584570315,0.0369294002749,-0.0166947357988,0.0199649107308,-0.128133072092,0.0286772136955,0.0411050848912,0.00245515652542,-0.0182760428094,-0.371646750392,-0.296788837185,-0.0657455224255,-0.00111235817816,0.0712277293988,-0.0453465703146,-0.0272691422845,0.19206198675,0.0398432168751,0.0757971452239,0.056571274524,-0.00561312255069,0.0303054232894,0.119582041523,0.1225290897,-0.0185296441095,0.0267482970551,-0.00182973862546,0.0188574972307,-0.0389617121694,-0.0869865516664,-0.0609859411887,-0.0539442632035,-0.00661894352167,-0.121691825109,-0.126049463088,-0.000486738543012,-0.163107351063,-0.347998990283,-0.276241926755,-0.225151360946,-0.0228740936112,0.131402857698,-0.0621045552679,0.103821864307,0.00287230025491,-0.0398910516048,-0.105641752908,0.0241459609131,-0.00681450664875,-0.0262808226473,0.0039780560104,0.19325085044,0.152670366004,0.0277732532046,-0.0969150671506,0.0409077747153,-0.064204656962,-0.0362900731302,-0.151328317846,-0.104501241637,-0.00382202320125,0.0137603987734,-0.192579341255,-0.070158181537,-0.230575260885,-0.273021815412,-0.295616517242,-0.284410044434,-0.0763151755765,-8.76257445402e-06,0.0723434499894,-0.0674574788727,-0.0434728823004,-0.202131199623,-0.0143213505767,-0.0961213385501,-0.0784709134888,-0.00999896470009,-0.013404199513,0.0300970755361,-0.034962486769,-0.00321166221705,0.0861121884776,0.0454662672897,-0.0543123682355,-0.0214020666416,-0.146812948001,-0.0712962358097,-0.05796562194,-0.125056692668,0.108184629144,0.113722926002,-0.155309787103,-0.0974674326653,-0.215013644026,-0.157762903984,-0.0459988671477,0.0931010036023,-0.00382488525163,-0.0611031586449,-0.10444521224,-0.0861244971496,-0.00274639658323,-0.010558643526,0.00664705741812,-0.0957603150316,-0.0360502334636,-0.0729064644405,0.00732774111546,0.000351161179746,0.0325886034399,0.0862879187287,0.0474522683831,-0.104770516689,-0.0516037802485,0.0140952048623,-0.0549600890095,-0.0753026396396,0.036448719153,-0.0157311796919,-0.137439568445,-0.116755725694,-0.182598540785,-0.223164317853,-0.020088683283,-0.106582187034,-0.179813153901,-0.0771676566528,-0.115757494364,0.00867485084794,-0.0528001644321,0.0464390286864,-0.0351124220561,-0.0190328126194,0.0418112645612,-0.0703511941621,-0.137520161083,-0.0605359792992,-0.0684809120284,-0.0946305085796,-0.0194404003059,-0.0786548777363,-0.0811525479265,-0.0534048611842,-0.0887954044933,-0.0548739739587,-0.11330897739,-0.0440341166114,-0.0696622782111,-0.191535371143,-0.108286694408,0.102794187343,0.103485299894,-0.0920639185089,-0.104077158932,-0.192676900881,-0.0663823983519,0.0345847882658,-0.00600091851684,-0.0840300589485,-0.00347185186272,-0.0743730347061,-0.0110161713268,0.039463884135,-0.12317155358,-0.0241982630546,0.0909398865304,0.068639396064,-0.13641643273,0.0732915151554,-0.128180611329,-0.0878385476645,0.0162413377068,0.0695003319593,-0.0594820538964,-0.192463206882,-0.119287182233,-0.135717048959,-0.102115123123,0.0818986709124,0.0306518187746,-0.161613307627,0.0451726647708,-0.137850836639,-0.0662772269687,-0.163320485352,-0.143021954721,-0.103948978321,0.00320150284084,0.000235958884553,0.0420816964245,-0.0970150558931,0.0942720069653,-0.0677118357775,-0.0454509534668,-0.0777507324763,-0.0486532311295,-0.0211591876885,-0.0943324777937,-0.0809535592691,-0.11141118688,-0.0849183848135,-0.100784428464,-0.170353803977,-0.167115962791,-0.0611225774399,0.0249656676388,-0.0870437708884,-0.0610423737175,-0.0131133078515,-0.144390139439,-0.157523026434,-0.150932740891,-0.12808485963,-0.0777782085442,-0.0576975885441,-0.0308788866188,0.00908403980956,0.021282005183,0.0486472702983,-0.0053441722192,-0.0701372086254,0.0199710048051,0.0178435893681,-0.139627733898,-0.0703501852884,-0.0360930933331,0.0134759651874,-0.130605113849,-0.0838046157902,0.0510347950027,-0.0160496916165,0.0869010867347,0.0966817504569,0.129004674166,-0.00185947989864,-0.0175718339792,-0.10309492131,-0.220022436909,-0.13441218397,-0.0566156859714,-0.0625951547068,-0.0205531488848,-0.105725590784,0.0446939631653,0.0234433234145,-0.0238754095783,0.041834984234,-0.0488250080684,0.00251515002305,-0.0382117522672,-0.0449192435537,0.0540961461849,0.0671140305834,-0.0133786872434,0.0571000426434,-0.0247450143708,0.0704948985072,-0.014592427674,-0.0658356865957,0.0111996096349,0.0325302982359,0.0463541300995,-0.0611887667045,-0.0537716877637,-0.169234002472,0.0344439583598,0.00333164154569,0.0141333778921,-0.0364473404566,0.0385318213507,-0.0780634249467,-0.0289901704556,0.00172380603599,0.0153378087794,0.156548858685,-0.0471251085092,-0.0132433519642,-0.0150629133091,-0.116737573611,0.0256047733922,-0.0225516071007,-0.0836883236175,0.0465121320654,0.0120617904241,0.0120269365022,-0.0850064529297,-0.0307209817086,-0.0338252687677,-0.156440200058,-0.0707575329385,-0.0564155246904,-0.0403767656301,0.00520236852966,-0.0320922618938,-0.0163740313124,0.117872665766,0.0134211488204,-0.169251511098,0.0192049220069,-0.0208857014896,-0.108561242494,-0.0531509454803,0.046716331682,0.0265101662096,0.0353689374515,0.0405361874001,-0.0343429906006,-0.0203829090826,-0.00141962567242,-0.153376330468,0.0546549325162,-0.0731363525158,0.0881156655913,0.0174585762328,0.000757515680205,-0.0607178638048,-0.0998311272244,-0.150700240838,-0.135505469095,-0.0578794185051,-0.090478273757,0.0464229820311,-0.102204166098,-0.0212563352025,0.070289597312,0.0401546815688,-0.00200065804701,0.00392652642895,-0.0702077731764,-0.00701366258402,0.0254537245328,-0.0136041334199,0.0179418733488,-0.081761242092,0.0192868318137,0.0319558057524,-0.0556072552201,-0.0513768455905,-0.0178933502973,-0.033131674182,0.0444579207796,-0.0265049514228,-0.0316836397027,-0.0681338390483,-0.0774025186103,-0.0429521786957,-0.102670111602,-0.0755799468769,-0.0642526110272,0.0782361772287,-0.0845706590322,0.0438318580904,0.0045925495306,0.00240531858652,0.0635863234576,0.049541252159,0.052292871113,-0.0120918595097,0.0218106809698,0.0407145994995,-0.0171317361524,0.0418578357703,-0.0775315670938,-0.0953922711241,0.0157228305628,-0.0997829727233,0.020304990171,0.0298653878633,0.00921859392754,0.0477130468215,-0.123457494738,-0.00235017849126,0.0650081374487,-0.0135326903728,0.006593924811,-0.02922269592,0.084001736363,0.0476718395483,-0.012110451712,0.0851521617327,0.0342117556399,-0.0508747000453,-0.0512998885934,0.0898259500494,0.0284042062592,0.0229853666214,0.0958741856272,-0.0177505719488,0.0209656323405,
-0.043818523146,-0.0178343853544,0.174280949483,0.074488263716,0.0631497281871,-0.11166018825,-0.0840432399093,0.103690007643,-0.0385638510544,-0.0576694057018,-0.0210390256968,-0.0239749423891,0.0330674505338,-0.0377396062601,-0.0341802573091,0.114442034933,-0.0319891120063,-0.0668347096137,-0.0800202241191,-0.0397759465285,0.110674746428,-0.00371293330943,-0.0205440909338,-0.0325496831684,0.0693140151113,0.0331845874594,0.0522391919599,-0.0644675818676,-0.0685802730305,-0.0574484204559,0.0523233947169,0.0374905204199,0.0721287881108,0.0346370461377,0.00091028873093,0.0749672402582,-0.0538856775484,-0.0482548572469,0.0651778061103,-0.114849969703,-0.0678032176589,0.0740352579896,-0.0285833381407,0.02726478215,-0.0281857332655,-0.0390713472591,-0.0455630359173,-0.00195955581527,0.00502593873266,0.017351762172,0.0556235144533,-0.00138922563273,-0.0795480659329,-0.0619795318804,0.0521084435813,0.0924182634426,0.152703445662,-0.0103682028205,-0.0357937390544,-0.000493433400308,0.0216114153115,-0.00608580523724,0.00488525035541,0.0332086468618,-0.0406372550518,0.0527527078294,-0.0518906116146,0.0186793645517,0.0473719296686,0.0693955158384,-0.0314359929085,-0.0697429228594,0.0397409199458,-0.0371469505672,0.0344656259204,0.15403528165,0.00566149009509,0.00384196364085,0.0239993114023,-0.056867537942,-0.0230311557881,0.109099274221,0.014162296799,-0.0903214629704,-0.00802127953889,0.0752319205775,-0.0369540534545,-0.0404921266475,-0.0390089324306,-0.0201754841965,0.0364242073371,0.0590583828035,0.0282217586697,-0.134959977091,-0.0123623845142,-0.00306495176485,0.0288176590155,0.0963022638817,0.0832606278763,-0.0319838891944,-0.00722896087205,0.00763429702281,0.138289301014,0.0688553331384,0.00334740228639,0.0403217439178,0.0472405910045,0.111847152658,0.0929618882641,-0.0223824455651,-0.0626369625833,0.0404152671603,-0.0372885931073,-0.0417961981952,-0.066422685986,0.0338747362108,0.0364930459031,0.00478214320406,0.110881279318,0.105243663165,0.0659328832478,-0.114175490916,0.0817446024535,0.0828514171585,0.0336736713042,-0.0120292965848,-0.0325396861582,-0.0451976007508,-0.0454100912279,-0.0503164401253,-0.0654872480193,0.0395639286733,-0.0104589013776,0.117381366755,-0.0274563698331,-0.0257905965679,-0.0442888735676,-0.0346884130941,-0.0949285322581,0.0709915642177,-0.0339752968653,-0.0281129105251,0.0180771970799,0.0570084794149,0.00569525105511,0.18876205206,0.163186474405,-0.0398815824625,0.0435352773991,0.00189220807339,0.0827411241779,0.0605927744078,0.0842259059697,0.0253022264433,0.0577196105088,0.161154085034,-0.00566000754736,-0.000625972328011,-0.091996598575,-0.161177006005,0.0599057278671,0.0680704474998,-0.0344980445217,-0.0182666410364,0.0322530056137,0.00719328699735,0.110100991411,0.111802149015,-0.0971313427167,-0.057201967685,-0.0550749004977,0.0898043858177,-0.0442134460419,-0.062417210648,0.0675256403823,0.114548005845,0.0687424758539,-0.0403231597607,0.0672150658019,0.0872662880018,0.000797240785791,0.0887501708088,0.346738690005,0.0840827574139,0.0458765890167,0.0719710134113,-0.0777447552736,-0.0861249919655,-0.0546927303707,-0.00774544650345,-0.112677339433,0.0484461967086,0.0698913107188,-0.0553557995057,0.0442488993685,0.0391596908241,0.00875924665938,-0.0254371955478,-0.150010212216,-0.011516999843,0.0125772028812,0.0602886646395,0.0624665636319,0.213359378267,0.0897855376314,0.0115021529037,0.0672727839326,0.0295462796068,-0.0139658834962,0.193875055859,0.150131564425,0.114046242786,-0.00587018481047,0.0761376519554,-0.0908304928529,-0.0391218751217,-0.225455535269,-0.0932105673136,0.0365165367785,0.010807757984,-0.00285462073471,-0.0240326383052,-0.096284303525,-0.126496783759,-0.126974376707,0.0689610313898,-0.0264564360674,0.039536546879,0.0438679025424,0.0363300695958,0.117235419766,0.0951126409841,-0.00700687579421,0.256000553974,0.194584743644,0.199515719088,0.0690547582313,0.00822753928128,0.119581320762,-0.0678085728511,-0.0606206033844,0.0269549868655,0.0915685637636,-0.0825964119191,-0.0801000016761,-0.0548877719971,0.0672508943304,0.0536571629574,-0.0783764475365,-0.00967019743147,0.0661901231172,-0.00571889376945,0.0677989103987,0.0520351824052,-0.0399089373985,-0.0416774475611,0.0628236667871,0.0665147018697,0.117544042528,0.0558965464823,0.065487691925,0.233642975712,0.254160283623,0.15114827904,0.201559650273,0.377616489848,0.119245572958,0.133026985469,0.0258345214227,0.216156004024,0.180156364455,0.0601624452674,0.00262221729567,-0.0463804316347,-0.0811200237935,-0.016457573351,-0.0516597162384,0.0154283697288,0.0143954382349,0.0730471932308,-0.0851331885901,0.0339097751358,-0.0192529293333,0.00215808146938,0.0230780636192,-0.0483326236415,0.0513799678477,0.083044449046,0.00127598461937,0.0502842745606,0.0396512976073,0.090415446881,0.106479541452,0.270201047106,0.221340411958,0.0676936897729,0.19501523363,0.0247917861099,0.0957553672855,0.0987439761833,-0.0381900568315,-0.0419837845309,-0.023713364641,-0.105433141208,-0.0630504388885,0.00570881671829,0.135341071704,0.0614351002859,0.0303309065889,-0.039695455757,0.0650325319587,-0.0282150321059,-0.066825125862,0.0726406144671,0.116967263512,0.0878531944591,0.057958462247,-0.0145565622243,0.195462720569,0.149299393058,0.124326481399,0.298987561834,0.160914142176,-0.070155369164,0.0190354660067,0.100498364552,0.0521545465279,-0.020683580642,0.00103376167896,-0.17018950261,-0.0923014403502,-0.183989863585,-0.0530177337826,-0.0493015753076,-0.103589464779,-0.103652835239,0.0650078876874,0.0511727116791,-0.0393449877661,-0.0834037291282,-0.0128819918004,0.0155265291847,0.11779516845,0.00944077107872,-0.0477554262081,0.101243437098,0.233007980821,0.183513194885,0.200488622235,0.319854001204,0.354764314062,0.24700791475,0.192742221818,0.120432953202,0.153914148517,0.0371375420504,0.0117725035547,-0.0852214508583,-0.0713788494891,-0.102262434563,-0.226764821346,-0.0596618721507,-0.0964274527234,-0.000915710170141,0.0845322396903,-0.0174621813426,0.00362891912316,-0.0479646505498,0.0685969226504,0.0582957030379,-0.015621587025,-0.0533588990985,-0.0317911833356,0.281350280807,0.277384012351,0.0181465498405,0.126029825973,0.21460144309,0.268277899806,0.367521503266,0.401666039538,0.195991131898,0.0599109994849,0.138972534518,0.0953700888058,0.026487042656,0.0752310236139,-0.035411783909,-0.00993238084333,-0.013604819463,-0.123217840642,-0.0843625850617,-0.000800341110811,0.0759608995456,-0.0361243002531,-0.0683351205201,-0.0773584406145,-0.0635461713422,-0.188575444565,-0.065220673415,0.171877644216,0.260439872271,0.22767079467,-0.0280362150349,0.0946924768681,0.123276687845,0.154594512554,0.233433426063,0.122445015365,0.213542069665,0.173762067302,0.032051495907,0.0546734681292,0.0041951394542,0.0564145700837,-0.0557051690365,-0.1108182223,-0.112946225117,0.0220414342384,-0.079765825206,0.13052281512,0.000448303118978,-0.00142304289482,-0.010895884144,-0.12413348788,0.0420985854288,-0.0348805827792,-0.0113390086175,0.179293150016,0.126523342502,0.285361924145,0.0590993244565,0.13788025548,0.0404294509287,0.0115142908669,-0.0948034095414,0.0057686120068,0.257484028343,0.0840482100287,-0.0406052197495,-0.00623016075346,-0.0589413773304,-0.0671870722254,-0.0482581858314,0.0350412275183,-0.0856244290304,-0.112538936086,-0.00408274783492,-0.0536433839118,0.00450368941802,-0.0288154138819,-0.0725348884598,-0.0806459271533,-0.0453901157868,0.0248279843616,-0.046500373933,0.230426569442,0.0876259276922,0.257683911288,0.0926617890502,-0.0506287401559,0.0905387211337,0.0417295414395,0.0185326285844,0.0932122957023,0.197955479737,0.224158939449,0.232080660302,0.181067110041,0.066563965699,0.0732717077258,0.16590892293,0.162397965628,0.0844023167795,-0.0926474219368,0.00568277377513,-0.0775838598874,0.0427285209537,0.027344316021,0.0375195489879,-0.0624745417498,0.0625616719743,0.0744490896506,-0.112795378046,0.19072375079,0.141281569299,0.298587621679,0.0654391687785,0.124043815044,-0.0515934914229,0.0513048412371,-0.0234488244659,-0.0642759533117,0.14977336595,0.260424940424,0.186781215367,0.110506583137,-0.0134671020634,0.0328042116437,0.0116695600921,0.176976237196,0.0848301204445,-0.0217727237789,-0.0120012177309,-0.0421765128019,-0.00761905748511,-0.0951174561144,-0.0477971113294,0.055755471584,0.147630264245,-0.0268106773903,-0.0471525936623,-0.0024224767928,-0.0238366171861,0.240202748205,0.155235310407,0.12817232302,0.00625823159362,0.231754352305,0.150993231589,0.105569772895,0.0915201686495,0.0763810505394,0.0587794885508,-0.0584312436658,-0.0478959827072,0.0172372675505,-0.183472193769,0.113923233766,-0.0428272387087,0.0281669243741,0.074524188728,-0.0665837222193,-0.0188589070659,0.0693759154606,-0.0362832832975,0.0519285307271,0.0203007712635,0.15788359886,0.0410381881263,0.0822662610161,-0.116551819275,0.0686102914167,-0.086096427482,0.077017483018,0.0234342156255,0.079897140123,0.193667476818,0.173866300694,0.187183363216,0.14881094089,0.106011943448,0.0161059891663,0.110494804826,-0.05378525396,0.0168732121183,0.00732131778155,-0.0226828896192,-0.0516749391369,-0.0271995513924,0.0741437538586,-0.021527710634,-0.109931392671,0.0432614077272,0.0203092676987,-0.0033792767257,0.151547785442,0.00759351737333,0.0909768918006,-0.0250877022595,-0.115921680441,-0.00466800103032,-0.0119642828427,-0.129792593541,0.212699485148,0.242726872435,0.104977376946,0.216879492133,0.148167526111,0.160590119719,0.128540787767,0.00814559339621,-0.0112555321849,0.0765037663046,-0.0770880414424,-0.045723662961,0.111210282729,-0.00898468265175,-0.0374083236019,0.00633331610194,-0.0482137157884,-0.0561560058278,0.0227873944376,0.0683898896453,-0.0143269664001,0.0434585036026,0.143931838991,0.0242892451224,-0.00485844057457,-0.101022820279,-0.170971614388,0.0189016657053,0.201881356608,0.111844683098,0.103127635807,-0.0368549501491,-0.0123963552036,0.0826365089278,-0.037451071644,-0.0121358169556,0.105133625019,0.00990123206738,-0.0128008735067,0.0510895029508,0.0270073313822,0.0135526539084,-0.00847583494185,0.00843295347079,-0.12230593593,-0.0591520798781,0.000444700668478,0.120489591254,0.101718274935,0.220939808204,0.0246394789547,-0.0270848887527,-0.0108183077656,-0.0987467175342,0.0816302522853,0.148914886888,0.203787424336,0.174941510733,-0.0345137062899,-0.0238243872951,-0.119292393405,0.0154550037381,-0.13705824125,-0.0927932252474,0.00271602199641,-0.116588040883,-0.0115214288839,-0.0275787909286,-0.0622108474804,0.130473432231,0.0201318835268,-0.0434702122705,-0.0577514237295,-1.35453191613e-05,-0.00609558891141,0.0861153636742,0.0881262280275,0.0754625510785,0.154527125441,0.016778872024,0.108402995152,0.0252720777973,0.139832832325,0.0551896650573,0.215821283503,0.214328884597,0.165983261508,-0.0308813224353,-0.0197031670064,0.0104042485544,-0.00623226129579,-0.0497399720978,-0.039405514165,0.0321915376182,-0.0267810367607,-0.017578942858,0.0192728026557,0.0857017923558,-0.0762413999868,0.0214605366156,-0.0478706514565,0.0252405185063,0.0427997269383,0.115454660929,0.0975181158135,0.150777785069,0.1831452635,-0.0603747005035,0.0346739807322,-0.109030379348,-0.102107020177,0.0666678404003,0.108462247637,0.202461321457,0.142125452695,-0.00994238684411,0.0660864092534,-0.0833036017501,0.0523823961445,-0.147564419455,0.0262929365858,0.105647208924,0.0291923769224,-0.0155599229194,-0.117880123226,0.123708599891,0.0175551226618,-0.00531783381243,0.0549483206191,-0.0634730188308,-0.064647779487,0.0202191766193,0.0441278886917,0.0601499832659,0.0737496023385,0.103882957977,0.154965589929,0.0168422695343,0.00854383577769,0.128379398574,0.0236871963931,0.0112284499991,0.0918473864486,-0.0129848612561,-0.0973482815941,-0.0762458711395,-0.00829316528017,-0.0307640221332,-0.0267871930412,0.109114878449,-0.0689580300907,-0.051054803384,0.0382722142629,0.0388797670519,-0.0184743045021,-0.0293378024386,0.0396474219244,0.0138500792893,-0.0129661286291,-0.0432932974858,0.147056649993,0.131526952071,0.019185305269,0.0538219047772,0.013212989568,0.00925909606705,0.07461267871,0.124044853098,0.011373553306,0.0389219356253,0.058275593222,-0.00418371353079,0.0462144876158,0.00062063141147,-0.0454415782219,0.00895781877465,0.0571477983395,-0.0104623101507,-0.102737425311,-0.0511951489842,-0.112606528489,-0.0833407327739,0.0271120216879,-0.0510880566633,-0.00474864241989,-0.012461786725,-0.0254594644178,-0.0350585009923,0.0634152913482,0.0263703300264,0.0768437747979,0.032004636573,0.0212401827514,0.0966436305178,0.112892794153,0.124561542647,0.02927718889,-0.0252666996058,-0.0218645213358,-0.0102032654063,0.118762142459,-0.0648729060363,0.0363418229666,-0.00730946287497,-0.00339135827738,-0.117701177232,-0.0431628510468,0.0135389521329,0.0215460269413,-0.0431570430198,
-0.0724053245363,-0.064368579141,-0.0558876967144,-0.050907788173,-0.101636947117,0.0239325438369,0.0160010940589,0.0929322031446,-0.0225872428626,0.0154684808107,0.0444375999788,-0.039948479006,-0.0295788852647,0.0941128512054,-0.0603621917211,-0.016330158382,0.0184058721798,-0.089697398336,-0.0718217354902,-0.0288849355723,0.0229167630039,0.0648286033234,-0.0188983264439,-0.0476331045075,-0.075506924185,-0.132728153165,-0.00208109193065,0.0645006319483,-0.0938462069285,0.0272184898531,0.0339950476423,0.0359898655034,0.0235132553258,-0.0423320616185,0.00658371950909,-0.015661447428,0.00552994771473,-0.00235108019737,-0.00268386507395,-0.0132899396636,-0.0808206323667,-0.0872387556993,0.0489931505679,-0.149197714762,-0.234698102083,-0.0230655571151,-0.0223011733322,-0.0164742406534,0.0122497229465,-0.0153186156854,0.0365285746174,0.0403954617988,-0.00141351917727,-0.000340167699144,-0.0795399366857,-0.00897862822545,-0.0209345308724,0.0125199163266,-0.0774222657245,-0.0251497334693,0.0907035326846,0.0505964516286,0.0197917146174,-0.0642338684661,-0.0108535676866,0.0382830035886,-0.175967543636,-0.0547657556671,-0.0932279801757,-0.216259490862,-0.0582741365341,-0.244702576749,-0.0443650495043,-0.0906629835655,0.0442750935268,0.0671873096692,0.0091952416104,-0.0640059676454,-0.0297759676939,-0.0799811701664,-0.0712140515861,-0.0241745752093,-0.0593829488917,-0.0802263778856,0.0115570891589,0.0502854324475,0.0605827104685,0.110939001486,-0.012721222908,-0.0918913262117,-0.0264763328551,0.00461613476742,0.0336391431565,0.065302403678,0.0958997257376,-0.0329557501984,-0.12905445821,-0.0353637943138,-0.0154836214359,-0.187406378759,-0.109843675854,0.046486345397,0.0512411989546,0.0547254348032,0.0562741462825,-0.0814907596781,-0.0664026999121,0.0374902521995,-0.0967732266088,0.00589064900581,0.118956932358,-0.0600997702209,-0.0614715277123,0.112007641792,0.0553298130029,0.0201383912393,0.0838450809489,-0.0558471413016,-0.0166828710379,0.0445727481387,-0.0283849711045,-0.0638196409413,0.0614486546901,-0.211274009772,-0.0969708000238,0.140526575502,-0.0321064753036,0.122594488285,-0.128944448153,0.0632698565829,0.100369835011,0.163878683876,0.058090218731,0.145138479533,-0.0308073085922,-0.0538682211835,0.057554513905,0.0288856225088,0.0527936050697,0.0219761581646,0.0832346421399,-0.018542608918,0.0245255258469,-0.0913178196996,-0.108328344497,0.0689189713256,0.106583105495,-0.0946410782445,-0.0953118611894,-0.0490846228436,-0.161256602164,-0.213186887746,-0.0489944552685,0.0634200725217,0.177444451227,-0.110347332818,-0.259946927469,-0.0881219029296,-0.0572042463034,-0.18844523628,0.157370795166,0.135775940859,-0.0747560342369,0.236386234296,0.0462625191186,-0.076995246124,0.00969435117824,-0.0452796559926,0.0218462065937,-0.0348589235793,0.0405348419291,0.0270874660415,-0.0600599871791,0.121739304813,0.108468387608,0.117994050722,0.0875646208845,-0.0696620855579,-0.0933585529847,-0.131174443826,-0.0625890101279,0.202123388537,0.0781624876173,-0.0739083731484,-0.389916149196,-0.25573801548,-0.321893896513,-0.160685981645,-0.00709832071931,-0.0371895672509,-0.0179994675392,-0.118039526204,0.0677548563118,-0.0364455673743,-0.0622927881389,-0.058515396353,0.0316961127879,-0.0831072103143,-0.0269272398628,0.0638940217748,-0.00694672545307,0.10401140174,0.304236095651,0.134124456627,-0.0423727160901,-0.143115621064,-0.0723419056345,0.100519569211,0.0698430349567,-0.0422474189202,-0.273254048401,-0.589676693997,-0.522145766236,-0.294420319651,-0.184750022432,-0.119522400072,0.0621896521501,0.0369286724437,-0.033846888686,0.00200472603962,0.0464355234623,-0.0939649918979,-0.0616818654066,-0.0924646283359,-0.0285344246514,-0.0266208654567,0.0537834635593,0.0305802332708,0.104630175512,0.0587345049974,0.106927061009,0.00509309833748,-0.208321504119,-0.111898206096,0.0652618689398,0.215904502258,0.0477279740448,-0.156216700563,-0.253855126423,-0.471665106446,-0.253794890152,-0.243058701876,-0.0588433109104,0.123221791287,0.104760957754,-0.177663726591,-0.115061524041,0.0105781745722,-0.0636102158997,-0.137903041043,0.0393391641247,0.0289889105338,0.0200053623791,-0.0150444768321,0.0272742265012,-0.00894776768612,0.16075707487,0.151878435849,0.00837256560443,-0.0298047830585,-0.106751601871,-0.0991469168122,0.0430109391414,0.159160121739,-0.177314899469,-0.372893280801,-0.234973032419,-0.128890876911,-0.156921611909,0.089390173996,0.362922609892,0.180996830367,-0.116787650399,-0.226626010254,0.00527405406017,-0.0122239589511,0.0507506967135,-0.0541790169875,0.0317811365525,0.0284647397422,0.0600651782833,0.0068474576601,-0.0510329298688,0.0271229907452,0.00487806427676,-0.159548437658,-0.229676008694,-0.290150225729,-0.123216048828,-0.372118605713,-0.447142345549,0.11655836764,-0.405692911545,-0.32375173615,-0.130901803809,-0.29376085227,0.0723258763304,0.152733360362,0.284961845425,0.107731353703,-0.0543004288204,-0.163538752996,-0.254465087271,-0.123671172341,-0.086355153259,0.0127699538286,0.0231977039517,-0.0340705988244,0.0160452165501,0.0394943461779,-0.00592713718713,-0.0666757760412,-0.0873109926383,-0.219387182224,-0.155188890628,-0.310685867152,-0.195863614584,-0.301674711652,-0.223791659402,0.189010651175,0.101712397659,0.328051288515,0.243351445589,0.211719508431,0.116801645257,0.0259990609072,0.0406378651521,0.0275907263351,-0.0573648132352,-0.182456768771,-0.172832018268,-0.120448100071,-0.000870895066868,-0.114579685432,0.0893180707293,0.14515247563,-0.0305552465218,-0.120790994126,0.0171569830761,-0.0309308031103,-0.114618001119,-0.189127756688,-0.0451872729335,-0.240416677545,-0.22966902624,-0.0163777882354,-0.187779266768,0.0528731616312,0.0219069557703,-0.121637846771,0.136592733653,0.192861410181,0.102962526561,-0.200911901471,-0.120138902264,-0.237431654871,-0.171626470855,-0.190713309252,-0.123837195072,-0.0986553369975,0.00155690041018,0.0621721645641,0.0892500435525,0.0640340065919,-0.045923372613,0.00592032273655,-0.0539628994394,0.0373993022092,-0.0960362844342,-0.12710267941,-0.00424875936387,-0.325584883081,-0.435913628354,-0.190728544358,-0.00189297476253,0.152139725289,0.0555489891036,-0.148262131486,0.279553976785,0.331479499205,0.0868910384456,-0.0168241818977,-0.43400814731,-0.255455964985,-0.232571119247,-0.160186343831,-0.161369819583,-0.0904273698272,-0.00627535404994,0.0821125199093,0.1282845644,0.101401165601,0.0547960876321,0.073565382762,-0.0134517452574,-0.00291874976088,-0.0543475769411,-0.0772903113517,-0.147739903665,-0.339814845195,-0.29681984606,-0.00951603606658,0.113013164725,0.371438168269,0.106964698051,0.239988894599,0.176902103334,0.285653514174,0.172350277536,0.0531497301883,-0.186829396085,-0.120144517892,-0.186548672161,-0.145665849492,0.0786644787055,-0.0577568409248,0.0718233582852,0.0101203466583,-0.0201756248314,0.0431142389456,0.024270500014,-0.06172765137,0.00856862104657,0.0264523268185,-0.0261679215959,-0.175440292082,-0.336959660056,-0.339715656596,-0.136032766116,-0.056330995556,-0.0310822860004,0.0338671291159,0.0474095216307,-0.0234352262989,0.055631132118,0.0634254247662,-0.20075068275,-0.482194476844,-0.269859590949,-0.119056949675,-0.0531705576154,-0.00600314345059,-0.0201764518605,0.0496015815922,-0.0639674943926,-0.011252849093,0.0690444364225,0.0414812843949,0.00484623604852,-0.0522453888865,0.0528660654301,-0.00573955601092,0.0167528704192,-0.251170222765,-0.31538603158,-0.375559896052,-0.138336662951,-0.00743767821704,0.113681726333,0.190600006685,-0.0480403084626,-0.123357104382,-0.123460169189,-0.11813473894,-0.208109282467,-0.480573974694,-0.272919281302,-0.0112663612832,-0.0195357271176,-0.105610666658,-0.276641632553,-0.183768315967,-0.131853513913,0.0790501545192,-0.0135146916047,-0.0147379976466,-0.0555169137767,0.0519995902434,0.0100885618176,-0.0729516968347,-0.0639238154428,-0.164368697188,-0.193196634711,-0.249474591583,-0.281700202359,-0.217556416152,0.0667500076069,0.0873057154635,-0.221219735619,-0.365794616045,-0.29331747289,-0.0993830166658,-0.383834292136,-0.285682987802,-0.0191913015275,0.149629011358,-0.109775999789,-0.191055509223,-0.362792027395,-0.388776982708,-0.209099771777,-0.208141246747,-0.0534911177935,-0.0305517376656,0.0240405203957,-0.0633934993084,0.00605084426183,-0.0231379321973,-0.0582256136652,-0.0355191761833,-0.120307267255,-0.402625394196,-0.25199934138,-0.268709774232,-0.0362827867326,-0.0653144289508,-0.342418638911,-0.300204691237,-0.186761467799,-0.159409083758,-0.433043781569,-0.0844518778117,-0.0435921758151,0.0907361628778,-0.020909053631,-0.234867617321,-0.318697012522,-0.163072692122,-0.0775445052741,-0.0377246341872,-0.00439932817895,0.0420765581376,-0.0650752563828,0.0804403231766,-0.00699073740219,-0.116099354201,0.0968369650715,0.0317561937021,-0.0457978734556,-0.268383854298,-0.0788300776787,-0.14688812961,0.0860993663811,0.0199352012795,-0.288536714134,-0.186123674896,-0.160868606697,-0.301913737821,-0.188567531926,-0.0931811113804,-0.122652773623,-0.0623059634234,-0.0508093237471,-0.285038627369,-0.12504273257,-0.139045491471,-0.137265658903,-0.123391651371,-0.0859563574154,-0.159510045645,-0.0711880733009,0.0213573950735,0.0515858395113,0.104852027636,0.12454561387,0.209229161319,0.173931518403,0.00866125470055,0.102724440672,0.0669476726394,0.124035011807,0.0607403702408,-0.0877895400181,0.15845255257,0.221418550641,-0.0143527083215,-0.0962548234307,0.0589526397518,0.0416293113852,-0.0881830814608,-0.0476890052167,-0.231503185329,-0.0613867760781,-0.085992001583,-0.154690969634,-0.0754042688533,-0.144004485875,-0.134229863377,-0.0464491163986,0.0707078419237,0.0186602229389,-0.012504044335,0.0650426184353,0.176254872258,0.185554933517,0.167822307705,0.112537029256,0.0328891588644,0.00380203949481,-0.061553230282,0.0621721965439,0.266227131391,0.322981576334,-0.0380544421274,-0.134867793691,-0.0488401061286,-0.0504317584141,0.00994834819108,0.17883502978,-0.00904110003473,-0.0188838899066,0.0417670708202,0.042361028969,-0.0630147530206,-0.000462976412344,-0.0332168472135,0.0530390093122,-0.00580794351944,-0.0971236419548,0.031007914325,0.0182233808383,0.0476245231599,0.100196750067,0.112554365094,0.265387621021,-0.0949069281791,-0.23905893316,-0.276534353251,-0.0222816208341,-0.0382700794192,-0.0903460443815,-0.0405458025226,0.0518331622489,0.0381724067866,-0.074566727092,-0.180771170006,-0.202975415074,-0.0604254546213,0.00430628202744,-0.0942507960875,-0.108101396167,-0.0880200828745,-0.153317515322,-0.0565808816061,0.0256464408231,0.0624617790013,-0.0152310909988,0.0115786210931,0.0883487136729,-0.0308196820768,-0.0679770098729,0.10132437788,-0.0192836499556,-0.147325107813,-0.0996778631081,0.0524357710089,0.197543539259,-0.00995846632848,-0.222329540819,-0.21797373172,-0.0706942381723,-0.00248350913329,-0.116099753263,-0.158330827358,-0.222737478367,-0.0867992313345,-0.248042386968,-0.149821086553,-0.00810291320878,-0.0195906312972,-0.0013222713605,-0.0146708966986,0.0836620936071,-0.00679857013747,-0.0423600791921,0.0635190358522,0.085053544924,-0.119830581175,-0.0744365420896,0.0867091876653,-0.0281068442225,-0.200016819648,-0.0760861678541,-0.0496374847785,0.0138169307739,-0.00937406858097,0.0369560404782,-0.13584296411,0.0732523803095,-0.0719694904032,-0.24072188558,-0.199084129229,-0.114380225423,-0.309787275362,-0.162435015646,-0.116005394337,-0.146974237067,-0.246688999918,0.0442718810556,0.0024671346312,0.0736677912619,-0.0975741503324,0.0102594305715,-0.0112645377635,-0.0338866167416,-0.144802444779,-0.111359008904,-0.0669911018988,-0.222617962986,-0.105275937539,0.0155856372192,0.0078871537476,-0.165876900846,0.108812344867,-0.0537838011485,-0.0578256906808,-0.112184414958,-0.226485458327,-0.135000445556,-0.133632858071,-0.134772655468,-0.241704947456,-0.179274146809,-0.21832708162,-0.0942870420932,-0.0679900545199,-0.0143734937656,0.00606379551316,0.115537363317,-0.00557518743456,-0.0446144035089,0.0622776566877,-0.0503238886012,-0.0949921368021,-0.0557123451436,-0.128837691942,-0.214077570071,0.00446994822618,-0.0985421780249,-0.0579286799689,0.020659807526,-0.0353461868744,-0.038217333421,-0.0701475672537,-0.0758996222518,-0.110980716962,-0.0422364473763,-0.111512358974,-0.0510862520706,-0.0580811083204,-0.0617580818313,-0.0975809514524,0.0189381227224,0.0187311307425,-0.0948185076638,0.0121029927956,0.078059977817,-0.00994969707566,-0.0596512401787,-0.10844468066,-0.117158671917,-0.0543261587765,0.0122730215925,0.0910127143427,-0.052111354876,-0.0426173893176,-0.139155238458,-0.009657363501,-0.160909976564,-0.0240225092073,0.0170267793048,-0.0441371048144,0.000798278433767,-0.0195103725092,-0.16394080774,-0.13910376021,-0.0821290105617,-0.0980265468611,-0.10879056416,-0.0042855085875,0.0175847888584,-0.0440299066019,0.0181401896645,-0.0322683411463,
